weights
-0.158445
0.02523687
0.02359515
-0.1378715
-0.4755009
-0.2928044
0.4210062
0.05126068
0.3119077
-0.1305855
-0.01007638
0.1155216
-0.6147052
-0.4491227
-0.1837716
0.1679289
0.0434636
0.2829392
-0.3993918
0.283445
-0.04323172
0.1988352
0.6849641
-0.4014819
0.6610277
-0.09359983
0.1084991
0.1321246
0.5106332
-0.1674913
-0.1638181
-0.6221643
0.6414917
-0.3204492
-0.3807594
-0.5113604
-0.5026145
0.7112
0.3062365
0.6604927
0.4229827
-0.1285751
0.1682053
0.0009514581
-0.1345616
-0.07414692
-0.7178697
0.3174939
-0.4509184
-0.6046234
0.1777977
0.6391316
-0.3326704
-0.6534629
-0.3602043
-0.3972679
-0.6097598
-0.5873049
0.54216
0.3364664
-0.4982076
0.2783011
0.4692546
0.3721448
-0.578096
0.6792065
-0.6925169
0.2066731
0.247699
0.2595664
-0.1342075
0.7157985
-0.1719933
0.3302782
-0.1455257
0.4908733
0.2061395
0.1184986
-0.529561
0.6114664
0.5938711
0.4047421
-0.1684254
0.1940968
-0.1006592
-0.3809573
-0.1612956
-0.7037941
-0.4887353
-0.1564009
0.3342909
0.6228064
-0.4712455
0.2119148
-0.3091285
-0.6299944
-0.2718423
-0.2347739
0.534409
0.08118986
-0.6474213
-0.3163374
0.2488985
0.6105311
-0.5190851
-0.02098865
0.3137239
-0.1713671
-0.2352129
-0.6587194
0.0734675
-0.4492759
0.0908586
-0.6345132
-0.4248243
0.4104317
-0.02295472
0.2699887
-0.5122283
0.05181391
-0.06304947
-0.7265961
-0.5849971
-0.5842337
-0.2392511
-0.02043051
-0.02081709
0.7086126
0.1215918
-0.3608485
-0.1115169
0.594657
-0.07817151
-0.5336552
0.6513169
-0.7343513
0.5756186
-0.5805013
-0.1148842
0.3950948
0.5689094
-0.09472927
-0.6234994
-0.1132923
0.1814038
-0.4472669
0.4546455
-0.3776089
0.07676269
0.05012011
0.6479746
-0.2913362
-0.08148965
-0.086512
0.3595428
0.7506241
0.3720825
-0.3756095
0.1117528
-0.09527802
0.4121836
-0.7023202
-0.1981012
-0.6882379
0.2904908
0.2032654
-0.6817863
0.5866917
0.4335423
-0.4376679
0.4072658
-0.6361054
-0.1327075
-0.3933169
0.3139484
-0.5329435
-0.2728816
0.1612539
0.3292738
-0.4961548
0.0156941
-0.00620071
0.4355258
0.1681787
0.4850946
0.5698494
-0.228425
-0.1601318
0.5455015
-0.1043365
0.1580733
0.08946843
-0.5833703
-0.4219962
0.3215305
-0.1549218
-0.4543937
0.5031101
-0.1169225
0.07355108
0.2672754
0.3697589
-0.3461558
0.5830416
0.09443464
0.4787923
-0.3550711
-0.5128987
0.1175377
-0.536075
0.4711241
0.4165676
0.3797251
-0.4798678
0.3787453
0.1790884
-0.5525713
-0.5553512
0.5552676
-0.2359331
0.2280575
0.5313049
-0.1895943
0.5482968
-0.2733661
0.5282782
0.01496407
0.0643681
0.4335643
-0.2240467
0.3817221
-0.4401577
-0.4186252
-0.2682759
0.07833028
0.4563456
-0.3043274
0.2040882
0.4323924
0.4086101
0.05063045
-0.5019163
0.1654556
0.5657235
0.06632592
0.2569295
-0.132354
0.04615508
0.4439575
0.1861586
0.5495024
-0.1445942
-0.3863908
0.1064709
0.5405956
0.1375371
0.2403591
-0.1723012
-0.1645553
0.4897143
-0.3490295
-0.0216706
-0.3486492
0.02723028
-0.1974572
-0.1014553
0.5615013
0.05022643
0.132612
-0.1883234
0.5366602
-0.4551253
0.3753339
0.1296926
0.5739738
0.3021624
-0.1409647
-0.5570942
-0.09579455
-0.3727397
0.3516382
-0.1584498
0.01963214
-0.5163513
0.1157065
0.1627272
-0.3349603
0.009000341
-0.09778541
-0.571256
0.4469511
0.306052
0.1224067
-0.3788863
-0.3172781
-0.2971642
-0.5064779
-0.215455
-0.3717517
0.4059056
0.2674211
-0.02161916
0.5169521
0.2487234
0.5289917
0.2486133
-0.5914814
-0.5148197
0.2279291
-0.08301261
0.43532
0.03340034
-0.5167547
-0.4553312
0.05521428
-0.2885746
-0.1747008
-0.1279366
0.3921768
0.3748103
0.5467397
-0.5642579
0.5056829
-0.05707573
0.1953114
0.3893187
0.4048461
-0.156326
0.1105193
-0.04001859
0.4287282
0.0329664
0.5357209
-0.5747581
-0.4694543
0.236517
0.2435028
0.03541227
-0.01387283
-0.5887733
-0.2364262
-0.1736702
0.2976036
-0.2275084
-0.07204892
0.05623892
0.09964855
-0.4890051
-0.3815915
0.3008722
0.5071143
-0.4457713
-0.1590102
0.2353875
0.2694571
-0.02378234
0.5793479
-0.1196605
0.2690284
-0.01346385
0.1825096
-0.563131
-0.0654534
0.06877156
-0.5866622
-0.4131693
0.154248
0.3430474
0.5555604
0.5139031
0.1841014
-0.01878276
0.04011878
0.01844263
-0.2215828
0.1073666
-0.15822
-0.5446017
0.1721531
-0.4029039
0.2444723
-0.01990595
0.1591374
-0.02834856
-0.5172702
0.535676
0.2421923
-0.06291979
0.07792065
0.2633426
0.3415087
0.261613
0.3076842
-0.1649741
-0.2486233
0.1301695
0.3439523
-0.08982833
0.1658552
-0.4204532
-0.3527328
-0.3195426
-0.2211967
-0.5706217
0.07261279
0.4378861
-0.5795672
0.3228125
-0.1828808
-0.2702028
-0.2180959
0.005504876
0.120541
8.287423e-06
0.389383
0.1115622
0.3159601
0.436638
-0.5655972
0.5736413
0.1543265
0.06967722
-0.1588931
0.5039206
0.05001291
0.587655
0.3483547
-0.3476745
-0.03836696
-0.1065075
0.4075532
0.1593657
0.04335855
0.2935267
0.1534264
0.2233857
0.1333704
0.5183572
-0.3301116
-0.06411141
0.2701178
-0.4394913
-0.3542795
-0.421717
0.5725932
0.2958612
0.1664299
0.1018241
0.2720132
0.2332275
0.02570263
-0.3260799
0.4188221
0.3231962
0.349879
0.5694119
0.2436957
-0.416209
-0.308937
-0.4706664
-0.3145215
0.169104
0.09246027
-0.3336532
-0.3963077
-0.02487075
0.538752
0.1544986
-0.2178359
0.1844945
-0.279933
-0.2240501
0.4875809
-0.5044571
0.2879847
0.2873523
0.2470179
0.4604897
-0.1468579
-0.132705
-0.0179636
-0.5008057
-0.3657667
-0.2122953
-0.1080286
0.157682
-0.00536274
-0.002779355
0.5766381
-0.5341925
0.3389661
0.05557854
-0.1780407
0.2466582
-0.0461604
-0.4979025
-0.5302839
0.5833448
0.2647279
0.3833876
-0.1347474
0.5859455
0.5183641
-0.01843979
-0.2861759
0.5151771
0.1300933
-0.04782606
0.1355552
0.578089
0.5179745
0.1604458
0.4407019
-0.3775184
-0.4433455
-0.1408455
-0.4289729
-0.2816141
0.3746795
-0.1380254
-0.05940688
0.04549576
-0.3392637
-0.3616533
-0.1821117
-0.3516735
-0.3070923
-0.31246
-0.4089338
-0.07435616
0.3196316
0.4371358
0.1690322
0.341733
-0.4621783
-0.330906
-0.01017047
-0.3190547
0.3963849
0.3337508
0.3994373
0.5741474
-0.4290538
0.504728
-0.2957696
-0.2863141
-0.2180553
-0.1216038
0.4119667
-0.2366294
0.1548163
0.4445214
0.2426963
-0.2711202
0.1572772
0.4548911
0.0695996
-0.2651126
-0.3501175
0.3467187
0.2664664
-0.3169004
0.4321379
0.4170283
-0.1675708
-0.1360592
0.4335069
0.3526992
0.3539187
0.1920336
0.346439
-0.1765209
-0.07453376
0.268905
0.5302424
0.1685719
0.508075
-0.4376798
0.4489799
0.564258
-0.3706159
-0.4637903
-0.3824539
0.0212678
0.4501444
0.5797631
0.2726096
0.3199848
-0.07032986
-0.5800076
0.2813331
0.2143441
0.2750541
0.4490034
-0.1950173
0.5291857
0.5768695
-0.2023856
0.3927821
0.3894254
0.1802067
0.3991397
-0.1518927
-0.1663033
0.1623282
0.05376052
-0.03185983
-0.3645876
0.2047414
-0.05857854
0.2388549
-0.3140901
-0.1319635
-0.05193561
0.5668081
-0.1654699
0.5058588
-0.2284561
-0.4698691
0.4012344
0.2425748
-0.4805977
-0.4601325
-0.5030221
0.5758945
-0.2985302
0.5762451
-0.5183105
0.5211459
0.1816956
-0.04580102
-0.1400379
-0.5096967
0.05594035
0.3508256
-0.3673289
-0.2190821
-0.4488345
-0.2034567
-0.3363494
0.3819888
-0.5058807
0.3804382
0.1923423
0.5447602
0.09864576
0.247706
-0.133315
-0.04124079
-0.25832
0.5976183
-0.2819421
0.3055873
-0.4416349
-0.2701858
-0.5168155
0.3152484
-0.4524164
0.008076053
-0.5597047
-0.2857212
-0.4302244
0.3646806
0.3853013
-0.04779578
0.005846593
0.03470948
0.4859087
-0.298785
-0.5689584
-0.1533053
0.4751599
0.2364291
-0.04273921
-0.07880195
-0.3876423
-0.4610061
-0.5419676
-0.2461604
-0.4213376
0.1460877
-0.3023625
0.4557528
0.1224204
0.3757195
-0.4585276
0.3893049
-0.2379066
-0.5130215
-0.4855782
0.1254231
0.5465616
0.4492762
0.1435668
0.2192404
-0.3207615
-0.5307319
-0.2221993
0.3763413
-0.04498625
-0.5808763
0.1515705
-0.0543633
-0.5284811
-0.07955794
0.2218795
-0.3247764
0.07254432
-0.3983235
0.5081253
0.2192527
0.2505489
-0.3397218
-0.3679073
-0.09083822
-0.5707856
-0.4630987
-0.4928878
-0.2181731
-0.2724623
-0.1741537
-0.2100973
0.4550542
-0.4649146
0.4527929
-0.1217119
-0.3805381
-0.3015926
-0.2381561
0.2345047
-0.4434201
-0.3759174
0.4900254
0.235817
0.05703075
0.06943527
0.1522431
0.2540559
-0.5602601
-0.5751619
0.4915169
0.09245383
0.5487877
0.3138169
0.3037709
0.4721758
-0.4453315
0.5251913
-0.267955
-0.3993196
-0.04302799
0.1108849
0.519189
0.5366719
-0.2718774
0.3401893
0.4777097
0.3621264
0.4117178
-0.2021937
0.5721952
0.2667046
-0.5367305
0.5890629
0.3820424
0.4759207
0.1730903
0.383564
-0.3386312
-0.4747997
-0.05695996
-0.5705229
-0.4440197
0.0246057
0.3582222
0.3094693
0.04180585
-0.3748002
-0.02763048
0.03292885
0.1360929
-0.5331409
-0.336204
-0.292188
-0.09048778
-0.3757657
0.110836
0.2421634
0.05605189
-0.23042
-0.509893
-0.1776323
0.3869875
-0.07976357
0.4942707
0.216272
0.02989922
-0.0001045028
0.07711898
-0.2764382
0.3862845
0.5355155
0.05168969
-0.2480991
-0.05586751
-0.4727105
-0.2630855
-0.2299068
-0.4166504
0.3384728
-0.5788651
0.2669986
0.5809058
0.257225
-0.4704314
0.4625284
-0.5213773
0.06064061
-0.05118295
0.1878747
0.5753894
0.09120722
-0.5358495
0.1869628
0.5773965
0.3641941
0.3445884
0.3796784
-0.3041618
-0.2368719
-0.1639772
0.2321229
0.2642504
-0.1472433
0.2454597
-0.003856381
0.01680495
0.09071829
-0.0842255
0.2870894
0.3713572
-0.2406446
0.5495426
0.2408579
0.09108158
0.2221471
-0.3850207
0.1078197
-0.01515475
-0.006324061
-0.002487361
0.3651885
0.3431043
-0.229187
0.4468066
0.3467412
0.5037601
0.517383
-0.4560022
0.5760175
-0.249064
0.5757723
0.1149248
-0.2325144
0.3494281
0.06123933
-0.301297
-0.04081398
-0.4082146
0.1536551
0.3752736
-0.1311043
0.3674281
0.1225233
-0.4969015
-0.3124803
0.09189104
0.06013884
-0.1318944
0.2483827
0.2508811
-0.01635152
0.4988471
0.1859534
0.4652369
-0.3922474
-0.1046563
0.3605627
-0.1861366
0.1168108
0.2346252
-0.1837944
0.1056286
-0.07497171
0.1559866
0.01422206
-0.3069721
0.4443318
0.3622638
0.09468775
0.2052512
0.1053921
0.0812512
-0.1179694
0.5056584
0.1918675
-0.02437158
0.5801564
-0.4242848
-0.002390152
0.1886951
0.1842169
-0.3558575
-0.1568679
0.2661505
-0.1001658
0.4074843
-0.300612
-0.04442119
0.2530364
-0.04670759
-0.3130407
0.1903636
0.4887324
-0.5776651
-0.0444954
0.1627176
0.09258555
-0.3980307
0.5498946
0.3706835
-0.460956
-0.4797774
-0.4000229
-0.5041014
-0.3955276
0.0304339
-0.4066789
-0.2465903
0.2034356
0.4649846
-0.1103046
-0.009055662
0.2121761
0.3245826
-0.07137791
-0.3025306
0.08940599
-0.111965
-0.3123159
-0.1464468
0.4369559
0.4544871
0.4785107
-0.182278
-0.5784145
-0.5754624
0.1759247
0.5952861
0.05373541
0.1489616
-0.002696328
-0.4286811
0.03940202
-0.5142246
0.4658377
-0.0004859595
0.271255
0.09052839
0.3276823
0.5576712
-0.3965374
-0.04098718
0.4133072
0.270889
0.3073476
0.02364109
-0.3522347
0.5424953
0.01139767
-0.4872784
-0.310173
0.4425464
-0.223551
-0.1550057
-0.04713442
0.2069655
-0.3129837
0.3303202
-0.2155837
0.09378049
-0.4591827
0.2422408
0.3746459
0.005222429
0.2996398
-0.4917144
0.3335906
-0.3468734
-0.258781
-0.3736126
-0.1676994
-0.0242807
-0.06365895
-0.438924
0.1584503
0.2364855
-0.06909095
0.3480251
0.1960537
-0.1435816
0.1447332
0.06797467
-0.1334113
0.1027268
0.1049241
0.268395
-0.3130989
0.1899678
-0.5470082
-0.4271227
-0.05380104
0.2173637
0.3295501
0.08373823
0.3970802
0.05815458
0.4394606
0.3544456
0.2129312
0.4030651
0.1739069
-0.01926662
-0.2781043
-0.2878928
-0.234668
-0.3946445
0.493272
0.3220211
0.416906
0.4347702
0.4107074
0.1802271
0.4078362
0.2704859
-0.4471784
0.2552868
0.1677893
-0.4696616
-0.3807662
-0.255066
-0.4520656
0.1113715
0.5646394
0.1396968
-0.4162564
-0.2151301
-0.1378503
-0.3006586
0.3259319
0.3092478
0.2673665
-0.3808916
-0.5708909
0.1350376
0.5274486
0.1234449
-0.1319996
-0.5363835
-0.2739842
0.374589
0.3230864
-0.04086998
-0.1821808
-0.4752118
-0.060288
0.5863327
-0.04864075
-0.09443945
0.4930412
-0.1874307
0.1304284
0.4089441
0.2460268
-0.2023204
-0.495697
-0.1622925
0.09028668
-0.03271345
-0.2527356
0.109759
0.2809724
0.2681855
-0.1833063
-0.5253314
0.5774203
-0.034783
0.520923
-0.3358524
-0.338478
0.4584579
0.2596156
0.1797243
0.5656425
0.4807685
-0.1841523
0.1486565
0.4130944
-0.4084779
-0.520029
-0.4030994
-0.06844961
0.2331872
0.04677781
-0.5088389
0.5572557
-0.1794102
0.2580616
0.5926854
0.4049057
0.4459265
0.2170853
-0.1194833
-0.300849
0.4276651
-0.3027166
0.1272372
0.2221439
0.3824069
-0.3434792
0.1335873
0.04696424
-0.4996374
0.1577691
-0.0744681
-0.2030778
0.06814296
0.3043209
-0.09676525
0.4120342
-0.3163827
0.06266215
-0.04918611
0.2455274
-0.5889426
0.1250855
0.09465412
0.09860415
-0.162788
-0.3971139
-0.5386564
-0.05789622
-0.1803846
0.00221566
-0.2542204
-0.357886
0.5054831
0.272496
0.2172746
-0.4610515
-0.3531101
-0.3120259
-0.4650766
-0.2858649
0.2019547
0.1996102
-0.1045331
-0.2807158
-0.5696543
-0.08297128
-0.5322091
-0.002592426
-0.02588493
0.4867375
0.247229
-0.3411583
0.1480673
0.1693954
0.07928086
-0.2414822
-0.04051499
-0.1961119
-0.5354875
0.4819238
0.5081693
0.106487
0.5885009
-0.5641837
0.2246318
-0.5372402
0.4756701
-0.5284443
-0.5407378
0.1422177
-0.1867938
0.328798
0.592309
-0.01206736
0.1817854
0.4240007
0.486371
-0.2598233
-0.05377275
-0.574899
-0.2237236
0.1097646
0.4817881
0.3251862
0.5701633
-0.01527164
-0.1984351
0.2107868
0.4937841
0.4992185
-0.4665171
0.0496482
-0.1159754
-0.2728138
0.5807777
-0.2605564
-0.3039489
-0.01940976
-0.08043272
-0.3144663
0.02279759
-0.5139898
0.3618557
0.3112742
-0.04828531
-0.5553107
0.1716079
0.1411092
-0.02964977
0.1441143
-0.1420998
-0.09797976
-0.3517891
0.4715715
0.09604949
0.3854143
-0.2603821
0.1332509
-0.08826834
-0.1972117
0.07618815
-0.5397309
-0.521964
0.3183572
0.3371705
-0.1032803
-0.4467669
0.5015701
-0.0516261
-0.5078425
-0.4426433
0.4256809
-0.230148
-0.4242026
0.0639126
0.3379824
-0.09452299
0.2539545
-0.4558443
0.5815119
-0.05876761
0.05534905
0.3919286
-0.5881279
-0.1598718
0.2207119
0.02601354
0.3676109
0.4012931
0.3494102
-0.3309771
0.2360381
0.2033057
-0.3898539
-0.02763491
-0.1888121
0.1720428
-0.04992819
-0.5109523
0.04583772
0.1066771
-0.2510732
0.09705344
-0.2355136
0.09130101
0.3522503
0.3166724
-0.08360999
-0.2457507
0.3247239
-0.2382195
-0.450477
0.4254789
0.4965971
-0.230008
-0.2624664
0.05994942
0.09402173
-0.2123199
-0.5202632
0.1677619
-0.3893639
-0.2609709
-0.1825881
0.3449062
-0.3859227
0.4786537
-0.04778964
0.1798066
0.02969078
0.4357872
-0.4517322
-0.1082916
0.08326118
-0.4898708
-0.0927901
0.4878001
0.4835083
-0.5295523
-0.1706455
0.1625448
0.1737516
0.178747
-0.1807553
-0.3521513
-0.2148135
0.08139937
-0.001398377
0.3681717
0.1675874
-0.1550102
0.1846803
0.4864658
-0.2389493
-0.05454574
-0.413532
-0.538179
0.536133
0.3527115
-0.2801307
-0.2201985
-0.2711923
-0.3622227
0.4510872
0.3632061
-0.486732
-0.02655421
0.3356742
0.06765009
0.00480821
-0.2359983
-0.2349437
0.4816364
-0.4800353
0.2536405
-0.4600813
-0.4543108
0.2700468
-0.2335608
0.5543407
0.1894131
-0.08820118
0.5354607
0.5456842
-0.1992397
0.06910906
-0.4492821
-0.3149727
0.4248845
-0.1583343
0.4569853
-0.04017566
0.1064859
0.2793658
-0.4954815
-0.5919256
-0.3252634
0.5277668
0.3208882
-0.5029306
-0.202265
0.3614497
0.1506856
-0.1046392
0.4229279
0.05198345
-0.280887
-0.1462654
-0.03294517
0.009738158
-0.4452126
0.07784428
-0.2842847
-0.5886098
0.007421372
0.3380139
0.482753
-0.5225173
0.4077085
-0.518552
-0.03090326
0.2871969
0.2493908
-0.4233853
0.5171193
-0.03890699
0.5668929
-0.4629192
-0.2776414
-0.1935471
0.5490295
-0.1230304
0.1300664
0.10968
0.009468868
0.3665056
-0.4611866
-0.4821258
0.3921192
0.5405293
-0.4632016
-0.2925183
0.3249448
0.009442011
-0.2737601
-0.261839
-0.2094592
-0.1119024
-0.5413748
0.1640352
0.5422839
0.3828435
-0.5563059
-0.01384617
0.1130563
0.5380184
-0.5898055
-0.4740695
0.4106212
-0.1871834
0.541058
-0.3626596
0.284061
-0.1229091
-0.04999125
0.1466276
0.02900847
0.4128385
-0.1180813
-0.4929083
-0.1773153
0.1224881
-0.345435
0.4435583
0.3695926
0.4234581
0.07471617
0.3892302
-0.1185897
-0.5389687
-0.2751613
-0.2363119
0.09931141
0.1078637
0.2252076
-0.4238603
0.4012525
0.5797435
-0.5498626
-0.1222862
-0.2462448
-0.5348071
0.5149566
-0.4628174
-0.398116
0.5338228
0.4012533
0.5133883
0.2452087
-0.3460021
0.05562679
-0.1364621
-0.5868612
-0.5631797
-0.1149592
0.4768688
-0.3713576
0.06538815
0.3462486
-0.459918
0.2602594
0.5256255
-0.5560402
0.006501366
0.1422901
0.1498323
-0.1661133
-0.4287938
0.4565812
-0.4281242
-0.4126024
0.4457801
0.3958659
0.2653873
-0.3624902
0.3264549
0.4577574
0.3296955
0.3109426
-0.1647771
0.1489244
-0.08736972
-0.4604297
0.5821928
-0.305394
0.4565643
-0.3668514
-0.3422314
-0.5333671
-0.3012277
-0.1102797
-0.3498904
0.06844202
0.288309
-0.3953572
-0.5279367
0.5217819
-0.1283964
-0.007510287
0.4152026
-0.2583707
0.02758061
0.1903118
-0.1111496
-0.1648999
0.1852403
0.2373088
0.03776092
0.4680541
0.1919202
0.1067465
0.4406328
-0.1948056
0.2536111
-0.329496
0.3961999
-0.01251749
0.4987228
-0.3858494
-0.3186635
-0.08761503
-0.2080457
-0.470601
0.2603008
-0.1502719
-0.001648089
-0.1456574
-0.3323125
0.2614808
-0.4683491
0.464168
0.2418202
-0.07941952
-0.2270709
-0.4654408
0.188467
-0.135232
0.3836133
-0.01376431
0.5823892
0.4955079
0.3721019
0.3611496
-0.5278346
0.2784145
0.5786769
0.5687041
0.4331279
-0.2997178
0.359605
0.08580372
-0.352378
0.5805658
-0.3835119
-0.1195598
-0.03377455
0.3599021
-0.05886809
0.2353797
-0.3435402
0.2327751
0.226513
-0.5448082
-0.2238548
-0.3015406
0.5538486
-0.1226546
-0.04802605
0.2431083
-0.4919362
0.06341631
-0.004761004
-0.4261136
-0.2964388
0.1631516
0.01307324
0.2136549
-0.2428125
0.5836408
0.1526643
-0.5277328
0.1911502
-0.3933339
0.5186096
0.3174497
0.07492333
-0.5259311
0.3581859
-0.5185343
0.3800958
-0.2109744
0.4020979
-0.1235082
0.1391375
-0.1375448
-0.4972947
-0.1563916
0.5155759
0.5694204
0.0656954
0.2462534
-0.4118203
0.4069978
-0.4336965
0.3634483
0.5085249
0.1056272
0.07073735
-0.4608505
-0.3968056
-0.2797541
-0.5871604
-0.1127757
-0.2676162
-0.3918879
-0.3835815
-0.2995893
0.3974539
-0.1283961
-0.05975262
0.588098
-0.04323856
0.45466
0.1504794
0.4963669
-0.4151842
0.07621931
0.1293327
0.07082836
-0.4771507
-0.1305615
-0.3572025
0.02665471
0.1324279
0.1899293
0.1889694
0.1607119
0.4695783
0.05140109
-0.2848154
0.3102663
-0.4428212
0.2777622
-0.3787114
-0.442904
0.1023482
0.5091609
-0.5037101
-0.5833584
-0.08636724
0.06922143
-0.1721453
-0.2000669
-0.5183004
0.5705796
-0.1427165
-0.3755252
0.5488569
-0.1039923
0.4039692
-0.1942135
-0.2548553
0.05125417
0.58633
0.04442224
0.1163625
0.2348398
0.1495417
-0.03501276
0.3209269
0.1473378
0.5778148
0.1993258
0.3513102
-0.0192279
-0.07553571
0.2652522
0.2250738
0.1743834
-0.2432626
0.2873538
-0.2969338
-0.5309921
-0.3368733
-0.412465
0.246341
0.06676025
0.4433079
-0.5532663
-0.2542459
-0.1532341
-0.2308464
0.5897198
-0.3281325
0.3715245
0.3232736
-0.04243383
-0.1516669
-0.02004949
0.3719508
-0.2036481
-0.1200945
-0.5078976
-0.4812832
-0.5788594
0.1089622
0.2876441
-0.4947134
0.1574607
0.5395478
0.4714014
-0.2601853
-0.4590374
0.05016863
-0.0161281
-0.3976938
0.5799605
-0.5748444
-0.02584545
0.3944495
-0.09578252
0.03192203
-0.1709168
0.3236777
-0.4090818
0.4879426
0.03083298
-3.018563e-06
0.3860758
-0.4360814
-0.3211899
-0.3599037
-0.1111164
-0.3829694
0.09975146
0.02680082
0.521815
-0.2646107
0.4005601
-0.3468315
-0.2906867
0.2383482
-0.2004191
0.2919181
-0.2423937
-0.225213
0.02137369
-0.3712886
0.5699527
-0.2545318
-0.5249902
-0.1301092
0.5602088
-0.02699298
0.1338019
-0.3234189
-0.03802697
-0.4248695
-0.284732
0.3463613
-0.2913758
0.2333172
-0.5054208
-0.4037874
-0.244306
0.2963925
0.1287565
-0.3844919
-0.1612168
-0.5478575
0.04509703
-0.005446332
0.1475296
0.3586729
-0.004750763
-0.3968837
-0.1823146
0.3547036
0.5888424
0.4352224
0.3582699
0.2974382
-0.04876917
0.4410894
-0.5273048
-0.03328256
-0.3886413
0.1446129
0.1840919
-0.3224507
-0.076785
0.2996621
0.4060223
0.2102756
0.4214274
-0.3495919
0.1053777
-0.3427969
-0.389368
0.4246278
0.1414872
0.4826693
0.4056557
0.2334653
0.3720821
-0.00261293
-0.4505454
-0.4892354
0.1649595
0.3068679
0.3839692
-0.2369105
0.2836747
0.1387626
0.2840024
0.4672099
-0.2474327
0.5422802
-0.3371703
-0.4090747
-0.3020835
0.478627
-0.3867373
-0.3321306
0.5164181
0.1760088
0.5086326
0.5371368
-0.005309973
0.3337367
0.02436699
0.5590529
-0.366074
0.5689224
-0.07052228
-0.1350783
-0.1199451
0.4441864
-0.3828758
-0.1263154
0.1501052
0.1329454
0.05037316
-0.5664015
0.4087897
-0.2079633
0.266387
-0.5508956
-0.07956341
-0.5829024
0.2137643
-0.1819058
0.2166754
0.5617499
-0.3796073
-0.2217965
-0.4220945
-0.4797509
0.2923431
-0.4294029
0.451758
-0.4676319
0.05299605
0.2527717
0.02453472
0.5395322
0.183178
-0.2185419
-0.2877231
-0.1466994
-0.5229578
0.02208203
-0.3866167
0.2681407
-0.5301423
-0.08000798
-0.4189218
0.2702255
0.1832938
0.574269
0.3628644
0.5888015
0.4332802
-0.4710819
0.5002317
-0.2785614
0.1065315
-0.2208267
0.1571557
-0.2200008
-0.5455384
0.5601556
-0.5657953
0.5715946
0.3037251
-0.5674168
-0.4832988
0.3016108
0.5407744
0.3374585
-0.3739466
0.5655119
0.2625016
-0.4491174
-0.2383707
0.5754704
0.2465577
-0.567662
0.3066829
-0.2353283
-0.1659418
0.3989498
0.538162
-0.3874479
0.07036225
0.4449417
0.3602795
0.5469738
0.1911452
0.3867644
0.4596176
0.5167446
-0.3051576
-0.4583777
0.5535629
-0.4378919
0.1163628
0.2736792
0.3131978
0.342863
-0.03567631
-0.5066524
-0.23299
0.4986376
-0.02277491
-0.5415424
-0.05570095
0.03304005
0.4679146
-0.2053005
-0.4944239
0.1798947
-0.06395422
0.3284329
-0.5018674
-0.533336
-0.4520307
-0.3500793
-0.2155599
-0.07023942
0.4284207
0.07124828
-0.3999472
0.05050761
0.1387
-0.2190073
0.2362131
0.3578125
0.03239645
0.4752756
0.2804278
0.535929
-0.5187814
0.5452716
0.1009881
-0.06091828
0.5310134
-0.4601748
0.4632453
0.3368086
-0.2907773
0.1997709
-0.3730497
-0.2112586
-0.1159689
0.1932503
0.3331551
-0.2203639
-0.1976279
0.03687859
0.4332365
0.2515171
-0.5846206
0.4336603
-0.3382995
0.4361766
0.4074926
-0.4659784
0.5765068
0.3351544
-0.2319934
0.3782704
-0.5019015
0.133575
-0.106127
-0.4090206
-0.2318671
-0.285895
0.3333734
0.3480867
-0.430002
-0.1579996
-0.329896
-0.1720582
-0.1817391
0.09036151
-0.5311069
0.06457515
0.4299476
0.4217431
-0.4690756
-0.115809
-0.506312
-0.145192
-0.3423025
-0.1944684
0.02514867
0.04098535
0.3164473
-0.2899924
-0.05753442
0.4172773
0.07899068
0.1714007
-0.08172322
-0.2061719
0.4143925
0.02585894
0.3864185
-0.01469101
0.5076768
-0.3457307
0.02861025
-0.4092359
0.2301034
0.4533763
-0.5219098
0.2380198
-0.5105397
0.3926048
-0.0376682
-0.4772289
0.08084673
-0.4404178
0.2750602
0.3022415
-0.2197165
0.1748897
-0.3152378
0.1429921
0.1701398
-0.512438
-0.3757501
-0.06607593
0.04131451
0.6832639
-0.2000035
-0.3407684
-0.2911038
0.07749424
0.3913953
0.3281676
-0.1753903
