weights
-0.01167183
0.001951446
0.001829633
-0.01014237
-0.03517593
-0.02163005
0.0312951
0.003880296
0.02320576
-0.009602893
-0.0006679003
0.008677788
-0.04549295
-0.03321599
-0.0135417
0.01253499
0.003306516
0.02106233
-0.02952895
0.02109976
-0.003121616
0.01482635
0.05124819
-0.02942225
0.04935725
-0.006594392
0.008390107
0.0101418
0.03820621
-0.01207314
-0.01180082
-0.04578481
0.04790856
-0.02421263
-0.02848142
-0.03816505
-0.03751695
0.05248059
0.02245441
0.04872039
0.03111016
-0.009784913
0.0122198
-0.0001811767
-0.009916704
-0.005429148
-0.05315789
0.02360874
-0.03336505
-0.04476153
0.01325073
0.04745605
-0.02459804
-0.04838324
-0.0266398
-0.02938389
-0.04512935
-0.0434645
0.04027935
0.02502821
-0.03685854
0.0207154
0.03487347
0.02767314
-0.04278238
0.05043984
-0.05066785
0.01574469
0.01878639
0.0196661
-0.009530368
0.05349291
-0.01233237
0.02490828
-0.01037014
0.03681535
0.01570369
0.009164221
-0.03908171
0.04551946
0.04421463
0.03019131
-0.01230661
0.01457192
-0.00728321
-0.02806639
-0.01178005
-0.05200382
-0.03616881
-0.01152724
0.02485479
0.04624651
-0.03487183
0.01578069
-0.02285211
-0.04664279
-0.02008787
-0.01733961
0.03969104
0.006078957
-0.04793898
-0.02339098
0.01851813
0.04533112
-0.03842407
-0.001493014
0.02332401
-0.01264305
-0.01737702
-0.04877793
0.005519681
-0.03324362
0.006804355
-0.04697825
-0.03143104
0.03049865
-0.001634749
0.02008536
-0.03791198
0.003908699
-0.004607859
-0.05381015
-0.04331064
-0.04325408
-0.01767553
-0.001451193
-0.001479953
0.05260329
0.009078713
-0.02669175
-0.008205232
0.04415374
-0.005730953
-0.03950322
0.04835607
-0.05438399
0.04274322
-0.04297705
-0.008454121
0.029358
0.04224532
-0.006960088
-0.04616573
-0.008328325
0.01351534
-0.03309737
0.03377456
-0.0279328
0.005756383
0.003780924
0.04810859
-0.02153646
-0.005977516
-0.006349937
0.0249006
0.05477778
0.02671069
-0.02872686
0.007408479
-0.007941861
0.02968374
-0.05295095
-0.01556589
-0.05190698
0.02066057
0.01514812
-0.05048538
0.0435655
0.03221021
-0.03238547
0.03026184
-0.04709865
-0.009774402
-0.02909725
0.02334268
-0.03944992
-0.02510746
0.01492428
0.03041122
-0.04568804
0.001506377
-0.0005109231
0.04020451
0.01555663
0.04477275
0.05258538
-0.02099485
-0.01470011
0.05034087
-0.009557436
0.01462983
0.008302781
-0.05371209
-0.03884041
0.02969609
-0.01422048
-0.04182714
0.04643291
-0.01071803
0.006838576
0.02469463
0.03414092
-0.03184763
0.05380012
0.008763242
0.04419101
-0.03266952
-0.04721717
0.01089178
-0.04935351
0.04394195
0.03845418
0.03506019
-0.04376748
0.034969
0.01656192
-0.05087599
-0.05110431
0.05126528
-0.02169199
0.02107705
0.0490286
-0.0174223
0.05059494
-0.02514039
0.04886841
0.001439543
0.005091575
0.0400223
-0.02059444
0.03436225
-0.04055349
-0.03852095
-0.02467028
0.007010416
0.04209046
-0.02799004
0.01887136
0.03991454
0.03772639
0.004723967
-0.04620858
0.01510878
0.05219773
0.00439963
0.02374064
-0.01214347
0.002495341
0.04084855
0.0172333
0.05070613
-0.01402063
-0.0355991
0.009878131
0.04989218
0.01273959
0.02222397
-0.01582428
-0.01511523
0.04483842
-0.03211895
-0.001940204
-0.03208592
0.002560144
-0.01814284
-0.009300594
0.05180536
0.004679041
0.01227776
-0.01730944
0.049515
-0.04190198
0.03464457
0.01200266
0.05295371
0.02789963
-0.01294429
-0.05130186
-0.008771882
-0.03430944
0.03245924
-0.01454842
0.001856628
-0.04754734
0.01071184
0.01504724
-0.03082779
0.0008758585
-0.008967116
-0.0526089
0.0412431
0.0282558
0.01132833
-0.03487552
-0.02919942
-0.02732907
-0.04663913
-0.01981448
-0.03420525
0.03745875
0.02469348
-0.001948585
0.0476982
0.02297002
0.04880269
0.0229589
-0.05447614
-0.04741019
0.02105185
-0.007609027
0.0401705
0.003120863
-0.04760349
-0.04192779
0.005131012
-0.02657284
-0.01606252
-0.01175119
0.03618939
0.0345826
0.05043527
-0.0519695
0.04665098
-0.005220865
0.01804258
0.03592479
0.03735586
-0.01437269
0.01022639
-0.002736113
0.03955431
0.003077028
0.05033218
-0.0528926
-0.04324317
0.02183714
0.02280153
0.003325828
-0.001246718
-0.05423686
-0.02175933
-0.01597901
0.02746597
-0.02093366
-0.006416987
0.005221499
0.01030278
-0.0450396
-0.03513772
0.02886487
0.04684872
-0.04106519
-0.01462321
0.02215621
0.02489475
-0.00216417
0.05342919
-0.01100085
0.02482158
-0.001209974
0.01685591
-0.05164607
-0.005999692
0.00473406
-0.05403696
-0.0380491
0.01263049
0.03158031
0.0512591
0.04740498
0.01648209
-0.001747742
0.003741378
0.001741495
-0.02038344
0.009944445
-0.01454656
-0.05016507
0.01556034
-0.03710725
0.02097662
-0.001799157
0.01470144
-0.00418659
-0.04774805
0.0494245
0.02235743
-0.006377491
0.00717345
0.0243139
0.03151749
0.02415223
0.02840524
-0.01517209
-0.02288689
0.01169891
0.03173213
-0.008242237
0.01531552
-0.03872707
-0.03247604
-0.02942572
-0.02036172
-0.05256978
0.006722742
0.04038817
-0.05339509
0.02978064
-0.01683136
-0.02488046
-0.02007769
0.0005323005
0.01113727
2.523176e-05
0.0371821
0.0103038
0.02914511
0.04158208
-0.05201023
0.05288255
0.01424589
0.007011176
-0.01459838
0.04646245
0.004624194
0.05418134
0.03211907
-0.03202856
-0.003514854
-0.009543144
0.03758583
0.01331881
0.004021633
0.02707709
0.01281594
0.02057125
0.01232857
0.04780353
-0.03076911
-0.005932283
0.02492736
-0.04048224
-0.03262863
-0.03883808
0.05280225
0.02729199
0.01505341
0.009402456
0.02510934
0.02151682
0.002388313
-0.0300355
0.03863205
0.02981153
0.0322687
0.05250383
0.02248112
-0.03834505
-0.02844736
-0.04335729
-0.02896715
0.01560785
0.008540633
-0.03072156
-0.03650726
-0.002344443
0.04967749
0.01425922
-0.0200736
0.01699132
-0.02579182
-0.02063371
0.04496008
-0.04648312
0.02656264
0.0264597
0.02273695
0.04243249
-0.01352835
-0.01221441
-0.001693627
-0.04615317
-0.03346144
-0.01955293
-0.009941894
0.01450555
-0.0003570691
-0.000224499
0.05316701
-0.04922255
0.03126168
0.005137872
-0.01618706
0.0229771
-0.004096798
-0.04589667
-0.04886397
0.05399777
0.02441046
0.03545647
-0.01240553
0.05402352
0.04778661
-0.001633175
-0.02634963
0.04750054
0.0120057
-0.004395673
0.01250842
0.05336869
0.0478147
0.01484431
0.04064006
-0.03478377
-0.04076328
-0.01295298
-0.03950421
-0.02594373
0.0345494
-0.01270681
-0.005451982
0.004209946
-0.03125767
-0.03332147
-0.01677255
-0.0324018
-0.02828077
-0.02877891
-0.03767383
-0.006837297
0.02947475
0.04032269
0.01559808
0.03358508
-0.04260227
-0.03050316
-0.000779411
-0.02841327
0.03680059
0.03077083
0.03682425
0.05292489
-0.03954994
0.04772475
-0.02633636
-0.02575171
-0.01980652
-0.01120516
0.03966597
-0.02137428
0.01169625
0.04100219
0.02240016
-0.02517824
0.0132859
0.04162364
0.006431466
-0.02441892
-0.0322469
0.0319867
0.02311505
-0.03028366
0.03909467
0.03808181
-0.01542643
-0.01462403
0.03941515
0.03286553
0.03262846
0.01770641
0.03199504
-0.01610153
-0.006807804
0.02479314
0.0488812
0.01554253
0.04683619
-0.04016876
0.04149421
0.05209955
-0.0340894
-0.04274382
-0.03497792
0.002061819
0.04199607
0.05344162
0.02513005
0.02950452
-0.006235022
-0.05339707
0.02593566
0.01976078
0.02535735
0.04138787
-0.01764425
0.04907584
0.05337715
-0.01861374
0.03620607
0.03631154
0.0166857
0.03690486
-0.01399783
-0.01532627
0.0149632
0.005012873
-0.002919258
-0.03360286
0.01887427
-0.005397449
0.02201797
-0.02888104
-0.01211112
-0.004748554
0.05226129
-0.01525029
0.04672132
-0.0210336
-0.0433078
0.03698516
0.02236075
-0.04429735
-0.04241117
-0.04636445
0.05308364
-0.02751568
0.05311576
-0.04777391
0.04803674
0.01674865
-0.00422098
-0.01290788
-0.04698053
0.005155844
0.03233648
-0.03442707
-0.02018994
-0.04136747
-0.01875294
-0.0312787
0.03515354
-0.04662876
0.03506675
0.01772713
0.05021519
0.00871058
0.02248617
-0.01251133
-0.003844108
-0.02380918
0.05460432
-0.02606407
0.02866193
-0.04071203
-0.02490907
-0.04759927
0.02929073
-0.04164385
0.0007419603
-0.05159289
-0.02634007
-0.03966031
0.0338954
0.03572803
-0.004261569
0.000605648
0.003196283
0.04519021
-0.02743822
-0.052432
-0.01413191
0.0437962
0.02179252
-0.003935288
-0.007263117
-0.03573164
-0.04249388
-0.04995643
-0.02269072
-0.03883129
0.01346879
-0.0278678
0.04200942
0.01128305
0.03463972
-0.04226249
0.03466501
-0.02192125
-0.04727922
-0.04484993
0.01098506
0.05023594
0.04141364
0.01323588
0.02021305
-0.02955787
-0.04961754
-0.02101725
0.03432751
-0.004311926
-0.05353729
0.01298146
-0.005259922
-0.04870595
-0.007333412
0.02045132
-0.02993579
0.006689231
-0.03671442
0.04683579
0.02020929
0.02309396
-0.03131366
-0.03390835
-0.008370515
-0.05260987
-0.04268514
-0.04543165
-0.02010558
-0.025113
-0.01631377
-0.01936469
0.04184032
-0.0428863
0.04155122
-0.01121747
-0.03524471
-0.027889
-0.02197508
0.02133741
-0.04102436
-0.03464974
0.04514237
0.02141722
0.005257623
0.006330442
0.01403547
0.02286705
-0.05164034
-0.05317028
0.04524542
0.008158223
0.05058583
0.02857732
0.02780204
0.04348891
-0.04159619
0.04806443
-0.02469804
-0.03684238
-0.004562511
0.01022232
0.04770957
0.04947258
-0.02490287
0.0313541
0.04411768
0.03340238
0.03806909
-0.01864023
0.05284136
0.02463297
-0.04945286
0.05447701
0.03529163
0.04386435
0.01597379
0.03556588
-0.03121734
-0.0437245
-0.005255951
-0.0526141
-0.04093093
0.002257941
0.03301216
0.02850536
0.003849006
-0.0345666
-0.00256042
0.003029196
0.01251594
-0.04916221
-0.03099459
-0.02693889
-0.008371506
-0.03464158
0.01020368
0.02231523
0.005180622
-0.02124488
-0.04708268
-0.0163963
0.03563652
-0.00735895
0.04556058
0.01995035
0.002719642
-5.258836e-05
0.007148581
-0.0254891
0.03557202
0.04929175
0.004755982
-0.02286759
-0.005158596
-0.04366138
-0.02425875
-0.02120317
-0.03841935
0.03114256
-0.05336601
0.024548
0.05350604
0.0237005
-0.04344206
0.04256149
-0.04806846
0.005578719
-0.00479842
0.01730545
0.05300518
0.008395396
-0.04894892
0.01721848
0.05337534
0.03361055
0.03204928
0.03498017
-0.02775513
-0.02168334
-0.01510663
0.0218464
0.02460878
-0.01358786
0.02264713
0.0001709631
0.001531112
0.00847394
-0.007784562
0.02743745
0.03421072
-0.02191339
0.05074225
0.0228362
0.008374359
0.02108445
-0.03513858
0.00998
-0.0004281078
1.654791e-05
-0.0002487796
0.03370577
0.03268452
-0.02114751
0.04143804
0.03193082
0.04782104
0.04766754
-0.0416506
0.0532225
-0.02205947
0.0530461
0.01146055
-0.0209256
0.0322659
0.007015716
-0.02691682
-0.003785209
-0.03756122
0.01566775
0.03456328
-0.01171472
0.03382991
0.01217234
-0.0458245
-0.02847262
0.008568464
0.006173977
-0.01218283
0.02344191
0.02340619
-0.001426761
0.04692746
0.01763861
0.04285903
-0.03608886
-0.008605251
0.03320737
-0.01694841
0.01073319
0.0210431
-0.01696106
0.009486243
-0.0070133
0.01394456
0.001291278
-0.02868378
0.04076701
0.03330838
0.008091237
0.01857129
0.009691827
0.00740742
-0.01158294
0.04658736
0.01753232
-0.002264116
0.0520587
-0.03912948
-0.0005305245
0.01724164
0.01609485
-0.03282053
-0.01536515
0.0239893
-0.009295665
0.03622304
-0.02865031
-0.004117088
0.02324528
-0.005740321
-0.02887489
0.01714569
0.04503721
-0.05327533
-0.004130731
0.01496854
0.008503901
-0.03671917
0.05065545
0.03413563
-0.04251971
-0.04425418
-0.03690442
-0.0464978
-0.03648925
0.00277312
-0.03751881
-0.02276176
0.0187183
0.04282648
-0.01021206
-0.000868151
0.0195195
0.0298827
-0.006621523
-0.02791993
0.008198685
-0.01035956
-0.02882372
-0.01354634
0.04023292
0.04185571
0.04406885
-0.01685124
-0.05335168
-0.05308307
0.0161783
0.05386563
0.004918209
0.0133938
-0.0003957429
-0.04019078
0.003597797
-0.04805546
0.04255666
-0.0001379834
0.02399106
0.0077118
0.03016595
0.05129611
-0.0376729
-0.003813719
0.03779836
0.0249395
0.02627919
0.002142869
-0.03298807
0.04977364
-0.0002493728
-0.04494733
-0.02989542
0.03997885
-0.02071855
-0.01625052
-0.005673788
0.01904017
-0.02898329
0.02831279
-0.01990407
0.008036295
-0.0423436
0.02244675
0.03448797
0.0005239528
0.02784388
-0.04537018
0.03089073
-0.0320227
-0.023896
-0.0343216
-0.01542993
-0.00213706
-0.005861865
-0.04039146
0.0145556
0.0217509
-0.00641
0.03206903
0.01800442
-0.01328363
0.01328367
0.006185852
-0.01234435
0.009399663
0.009622465
0.0246898
-0.028926
0.01745585
-0.05048374
-0.03942698
-0.005024114
0.01998714
0.03032747
0.007665779
0.03654533
0.003365176
0.04016404
0.03173512
0.01620245
0.03711942
0.01378119
-0.001901661
-0.02589646
-0.0285125
-0.02232536
-0.03800039
0.04452115
0.02794414
0.03841346
0.04002893
0.03746771
0.01597924
0.03755213
0.02487635
-0.04125798
0.0234928
0.01541434
-0.04333041
-0.03514692
-0.02356566
-0.04171201
0.01021768
0.05200362
0.01282948
-0.03841213
-0.01988169
-0.01275846
-0.02776084
0.029996
0.02847575
0.02459016
-0.03513832
-0.05264692
0.01239382
0.04858621
0.01133619
-0.01222139
-0.04947915
-0.02530588
0.03449234
0.02974501
-0.003796509
-0.01684618
-0.0438557
-0.005593436
0.05400717
-0.004566653
-0.008756507
0.04536219
-0.01736117
0.01196851
0.03761285
0.02260949
-0.01870131
-0.04576205
-0.0150168
0.00824328
-0.003091677
-0.02337827
0.01006246
0.0258433
0.02464427
-0.01697004
-0.04746746
0.0533978
-0.002899069
0.04982724
-0.03102126
-0.03009333
0.04221811
0.02403581
0.01755571
0.05239614
0.04503867
-0.01655552
0.01457267
0.03799993
-0.03771144
-0.04782676
-0.03692086
-0.006402019
0.02143182
0.004235289
-0.04701791
0.05130592
-0.0166345
0.02372525
0.05456818
0.03722916
0.04103179
0.01992133
-0.01108948
-0.02782014
0.03935994
-0.02796292
0.01166031
0.02040395
0.0369149
-0.03158686
0.01318086
0.007088057
-0.04613052
0.01638581
-0.00681425
-0.0186924
0.007838642
0.02853845
-0.007572153
0.03872794
-0.02775936
0.005680665
-0.004602269
0.02294916
-0.05376083
0.01148711
0.00866183
0.009035432
-0.01503309
-0.03666906
-0.04969084
-0.005400832
-0.01669128
0.0001592966
-0.02349163
-0.03303605
0.04653621
0.02506925
0.0199596
-0.04256425
-0.03261021
-0.02882086
-0.04296158
-0.02642029
0.01853325
0.01828614
-0.009703659
-0.02597304
-0.05257794
-0.007719146
-0.04915071
-0.0003172513
-0.002477444
0.04478185
0.02269488
-0.03151611
0.01357712
0.01553729
0.007227713
-0.0223438
-0.003807678
-0.01815541
-0.04945428
0.04434862
0.04675148
0.009741999
0.05417054
-0.05208991
0.02062729
-0.04960464
0.04376412
-0.04879497
-0.04991584
0.01303446
-0.01729488
0.03022722
0.0540214
-0.001219651
0.01642998
0.03817002
0.04475923
-0.02458234
-0.005045511
-0.05308642
-0.02117715
0.009874751
0.04392669
0.02967985
0.05206264
-0.001476857
-0.01836767
0.01925928
0.04527121
0.04617151
-0.04307874
0.004649479
-0.01041599
-0.0252286
0.05370556
-0.02407168
-0.02809642
-0.001662754
-0.007418967
-0.02886735
0.002133695
-0.04726574
0.03326747
0.02860853
-0.004471185
-0.05118125
0.01560167
0.01281206
-0.002800484
0.01287639
-0.01318092
-0.009286573
-0.03250942
0.04329548
0.008591871
0.03539577
-0.02418219
0.01212301
-0.008374345
-0.01826046
0.006937053
-0.04983282
-0.04820327
0.02924842
0.03098856
-0.009609661
-0.04128306
0.04614468
-0.004855299
-0.04689748
-0.04088968
0.03914006
-0.02130345
-0.03919462
0.005796957
0.03105497
-0.008800881
0.02331937
-0.04210906
0.05350806
-0.005511545
0.005010027
0.03603614
-0.05430321
-0.01482584
0.0202539
0.002307651
0.03378941
0.03689836
0.03211242
-0.03059818
0.02166569
0.01864853
-0.03603711
-0.002638673
-0.01749591
0.01576611
-0.00470026
-0.04719116
0.004132775
0.009736847
-0.02323506
0.008853049
-0.02180117
0.008317549
0.03237496
0.02909103
-0.007800399
-0.02274574
0.02983705
-0.0220648
-0.04161689
0.03912265
0.04567846
-0.0212686
-0.02427769
0.005430235
0.008586583
-0.01966625
-0.04805097
0.01536688
-0.03596914
-0.02415154
-0.01690802
0.03169405
-0.03566946
0.04402144
-0.004446786
0.01647641
0.002639976
0.04007001
-0.04170694
-0.0100693
0.007575776
-0.04523478
-0.008651928
0.04486309
0.04446728
-0.04889223
-0.01582914
0.01490176
0.01591478
0.01637514
-0.01676214
-0.03250062
-0.01990053
0.007403664
-0.0002302859
0.03502428
0.01577242
-0.01439259
0.01764447
0.04473546
-0.02213195
-0.005133397
-0.03767336
-0.04971482
0.05017911
0.0323986
-0.02592834
-0.02041919
-0.02257326
-0.03345203
0.04143008
0.03337201
-0.04492802
-0.002534384
0.03083594
0.006155227
0.0003385602
-0.02185787
-0.02176092
0.04434118
-0.04435213
0.02329432
-0.04251318
-0.04198136
0.024785
-0.02155867
0.05099012
0.01737143
-0.008235888
0.04927515
0.05020247
-0.01847105
0.006279546
-0.04151858
-0.02913896
0.03905653
-0.01468088
0.04201525
-0.003792515
0.009708136
0.02564318
-0.04577796
-0.05461267
-0.03008745
0.04854234
0.02947022
-0.04643353
-0.0187395
0.03320855
0.01379982
-0.009752899
0.03887489
0.00468341
-0.02597851
-0.01359018
-0.003124529
0.0007890418
-0.04114556
0.007066235
-0.02624972
-0.05436239
0.0005776731
0.03104727
0.04440878
-0.04826316
0.03747116
-0.04789367
-0.002957463
0.02636285
0.02287809
-0.03911928
0.04755559
-0.003681005
0.05214329
-0.04277858
-0.02570111
-0.01790609
0.05049722
-0.01144774
0.01187905
0.01003619
0.0007772994
0.03367244
-0.04259806
-0.04454924
0.03603307
0.04971268
-0.04277937
-0.02707272
0.02986637
0.0007598655
-0.02534399
-0.02424578
-0.01934239
-0.01042431
-0.0500082
0.01500873
0.0499813
0.0352134
-0.05138835
-0.001333311
0.01030936
0.0494774
-0.05447725
-0.04375498
0.03773638
-0.01727872
0.0497586
-0.03354035
0.02606898
-0.01121635
-0.00471489
0.01339969
0.002560545
0.03833041
-0.01082348
-0.04554783
-0.0162214
0.01117602
-0.03195524
0.04076853
0.03422979
0.03891476
0.007024167
0.03575876
-0.01104784
-0.04980113
-0.02466522
-0.02189701
0.009059379
0.009825757
0.01884554
-0.03992441
0.03687376
0.05229798
-0.05079831
-0.01137116
-0.02280196
-0.05081508
0.04735755
-0.04397559
-0.03680019
0.04909433
0.03689701
0.0435411
0.02244932
-0.03223191
0.005010988
-0.009941533
-0.05313655
-0.05203886
-0.009038657
0.04383094
-0.03436182
0.00589337
0.03376472
-0.04252888
0.02569728
0.04830541
-0.05138713
0.0004301254
0.01868241
0.01374587
-0.0151434
-0.03965189
0.04015601
-0.04030424
-0.03814999
0.03996399
0.03636576
0.02436034
-0.03352253
0.0285859
0.04207768
0.02902716
0.0285496
-0.01530527
0.01363188
-0.01184863
-0.04261181
0.0533215
-0.02827172
0.04197785
-0.03393218
-0.03167163
-0.04927714
-0.02789248
-0.01029244
-0.0323784
0.006197672
0.02644669
-0.0365549
-0.04879023
0.0479664
-0.01196354
-0.0007767608
0.03814265
-0.02394118
0.002412943
0.01726179
-0.01037369
-0.01532885
0.01694535
0.02174598
0.003323632
0.04301025
0.01755969
0.009709897
0.04048449
-0.01808659
0.02324134
-0.03051646
0.03629707
-0.001358169
0.04572142
-0.03569809
-0.02951679
-0.008209336
-0.01931014
-0.04351101
0.02385905
-0.01398753
-0.0002863604
-0.01356034
-0.03076517
0.02396689
-0.0433046
0.04264884
0.02215321
-0.007462122
-0.0210715
-0.04304577
0.01723577
-0.01074612
0.03520892
-0.001412719
0.05353161
0.04550518
0.03458348
0.03314336
-0.04880012
0.02550216
0.0531902
0.05227182
0.03983269
-0.02776089
0.03435234
0.008669436
-0.03145396
0.05337201
-0.03602484
-0.011154
-0.003248854
0.03304241
-0.00555145
0.02152723
-0.03182888
0.0213208
0.02074991
-0.0503476
-0.02076295
-0.02793031
0.05071916
-0.01150387
-0.004854712
0.02165474
-0.04547822
0.004895455
-0.0005691984
-0.03940932
-0.02745321
0.01491712
0.0009162142
0.01956015
-0.02251223
0.05367203
0.01394264
-0.04877222
0.01747928
-0.03644672
0.04723766
0.02871199
0.006191626
-0.04860976
0.02995182
-0.04790888
0.03491136
-0.01955767
0.0369812
-0.01204253
0.0126848
-0.01279726
-0.04593301
-0.01452652
0.04741148
0.05230528
0.005683828
0.02087408
-0.0395121
0.03519214
-0.04010192
0.0292437
0.04676953
0.009618384
0.006418446
-0.04253844
-0.03747085
-0.02590389
-0.05423228
-0.01047396
-0.02476891
-0.03622383
-0.03556855
-0.0280082
0.03394632
-0.01392276
-0.008636243
0.05408496
-0.003512909
0.04177053
0.01373557
0.04561522
-0.03841231
0.006998588
0.01178939
0.006393272
-0.0441207
-0.01217104
-0.03306146
0.002345588
0.01211873
0.01779913
0.01755098
0.01514628
0.0431495
0.004568057
-0.02638404
0.02846688
-0.04094801
0.0254714
-0.03504591
-0.04095605
0.009302278
0.04680016
-0.04656036
-0.05390184
-0.008092963
0.006245601
-0.01602011
-0.01859151
-0.04793391
0.05246073
-0.01159749
-0.03475831
0.05045185
-0.009730599
0.03707291
-0.0177325
-0.02362313
0.004583108
0.0538898
0.003949014
0.01057994
0.0215524
0.01377776
-0.002297394
0.03023518
0.01471591
0.05312236
0.01810967
0.03224878
-0.001904875
-0.007093932
0.02431864
0.02058684
0.0159366
-0.02255526
0.02635538
-0.02750183
-0.04907598
-0.03116506
-0.03817887
0.02265182
0.005901121
0.04064448
-0.05113052
-0.02355949
-0.01425817
-0.02141204
0.05422275
-0.03037945
0.03411249
0.02966335
-0.004045388
-0.01411391
-0.001982195
0.03414999
-0.01890511
-0.01120323
-0.04694406
-0.04449185
-0.05348383
0.00990895
0.02848432
-0.04574943
0.01437154
0.04958107
0.04327836
-0.02374981
-0.04243424
0.00447919
-0.001648799
-0.03680796
0.05330615
-0.05308159
-0.00232733
0.0374492
-0.007952583
0.004418559
-0.01589327
0.0281125
-0.03782941
0.04484765
0.002721043
-0.0001052356
0.03517366
-0.04033714
-0.02973082
-0.03328595
-0.01036277
-0.03542033
0.009041581
0.002190514
0.04710398
-0.0253081
0.03558434
-0.03209794
-0.02690268
0.02183641
-0.0186064
0.0267742
-0.02247568
-0.02088745
0.001837212
-0.03435619
0.05240153
-0.02359436
-0.04852361
-0.01212525
0.0515054
-0.002606842
0.01221104
-0.02992638
-0.003638324
-0.03931522
-0.02637789
0.03179238
-0.02699028
0.02137297
-0.04672358
-0.03735192
-0.02265171
0.0271868
0.01173501
-0.03557312
-0.01499344
-0.05063311
0.00401184
-0.000645584
0.01344955
0.032927
-0.00174421
-0.03760453
-0.01692859
0.03251319
0.05414097
0.03935562
0.03227832
0.02692753
-0.005009236
0.04053022
-0.0488572
-0.004026661
-0.03594294
0.01262947
0.01584411
-0.02984974
-0.007206349
0.03102243
0.04000685
0.01921922
0.03886254
-0.03233844
0.01145851
-0.02983058
-0.0349552
0.04016982
0.01288615
0.04473258
0.03975747
0.02134421
0.03585891
0.002634683
-0.04167961
-0.04524417
0.01409266
0.02740784
0.03526559
-0.02201209
0.02601298
0.01212749
0.02553327
0.04262943
-0.0232583
0.0498555
-0.03131018
-0.03852986
-0.02796748
0.04350695
-0.03661144
-0.03074377
0.04746973
0.0150748
0.04598439
0.04938336
-0.0006624295
0.0306212
0.001586276
0.05086754
-0.03416926
0.05197438
-0.006629333
-0.01269672
-0.0119001
0.04081906
-0.03590333
-0.01262017
0.0137056
0.01212355
0.004550505
-0.05231002
0.03754457
-0.01930187
0.02441942
-0.05089061
-0.007445794
-0.05385042
0.01958286
-0.01690176
0.01984191
0.0516741
-0.03512486
-0.02055807
-0.03900471
-0.044355
0.02681208
-0.03981238
0.04135677
-0.04323659
0.004720151
0.02316592
0.002007074
0.04946063
0.01665045
-0.02032595
-0.02665291
-0.01365175
-0.04844318
0.001904198
-0.0358612
0.02439873
-0.04899741
-0.007507177
-0.03874032
0.02477913
0.01676211
0.05280011
0.03331387
0.0541422
0.03980725
-0.04355264
0.04597736
-0.0258089
0.009687242
-0.02048342
0.01435283
-0.02040855
-0.05041264
0.05149897
-0.05228436
0.05279428
0.0280604
-0.05243564
-0.04466541
0.02766937
0.04985257
0.03111617
-0.03451568
0.05207591
0.02406265
-0.04150493
-0.02192612
0.05290903
0.02271805
-0.05223309
0.02813578
-0.02182327
-0.02013445
0.03307553
0.04951218
-0.03602709
0.006329275
0.03842573
0.0306048
0.04891226
0.01594936
0.03554778
0.04172328
0.04419603
-0.02820285
-0.04460869
0.04695534
-0.04046911
0.01061689
0.02738713
0.03050025
0.03145553
-0.003318443
-0.0468166
-0.02038563
0.04706528
-0.001534429
-0.04928983
-0.005276004
0.003161592
0.04462221
-0.01907772
-0.0446008
0.01840525
-0.006033178
0.03013593
-0.04635711
-0.04926512
-0.04179246
-0.03239368
-0.01999539
-0.006585839
0.03937788
0.006449365
-0.03698164
0.004529232
0.01266158
-0.02029281
0.02164659
0.03286871
0.00288421
0.0436823
0.02572247
0.05200521
-0.04585322
0.05011221
0.009297326
-0.005725539
0.05026495
-0.04286738
0.04267741
0.03110382
-0.02765772
0.01786743
-0.0332967
-0.02034403
-0.01022328
0.0192866
0.02985486
-0.02116407
-0.0195085
0.002214576
0.03909571
0.02232295
-0.05472731
0.0388818
-0.03225714
0.03922028
0.03657236
-0.04379031
0.05225443
0.02973121
-0.0222206
0.03380268
-0.04748875
0.01147207
-0.01062252
-0.03857517
-0.0222392
-0.02719414
0.0298847
0.03124202
-0.04049445
-0.01542304
-0.03125976
-0.01671226
-0.01759375
0.007483155
-0.04981952
0.005110123
0.03877208
0.03800389
-0.04407894
-0.01151695
-0.04742334
-0.0140942
-0.03239488
-0.01874062
0.001474615
0.003040924
0.02844515
-0.0274848
-0.006103754
0.03761775
0.006434274
0.01504875
-0.008378516
-0.01976699
0.03751328
0.001538031
0.03477235
-0.0004148957
0.04731671
-0.03272796
0.001866345
-0.03855793
0.0213085
0.04189809
-0.0484176
0.02167844
-0.04791725
0.0355305
-0.003059928
-0.0448575
0.007457685
-0.03992905
0.02449573
0.02700186
-0.02938903
0.01278586
-0.03976306
0.01064742
0.01060118
-0.04801253
-0.03530256
-0.006913653
-0.003281727
0.05195253
-0.02604182
-0.0321967
-0.03110606
0.004706735
0.03529277
0.02943582
-0.0205546
-0.03661644
-0.01947421
0.03280407
-0.02626318
0.03001639
-0.0215958
-0.02222205
-0.0007747659
0.02640269
0.03780344
0.03880083
0.01993404
0.05187127
-0.007329513
0.02343667
-0.04444497
0.03923872
-0.04893868
-0.04721049
-0.004327258
-0.004452563
-0.01395505
-0.01939825
-0.0555089
-0.02395578
-0.003013842
0.05075347
-0.04832909
0.009817642
-0.05318277
0.01773818
0.036543
-0.05030011
-0.006573544
-0.02298573
-0.003514962
0.02604051
-0.0423626
0.04065265
-0.008487244
0.03960096
0.03030493
0.0464373
0.02393156
-0.002896403
-0.02613708
-0.03786624
0.01110286
0.05377612
-0.03763592
0.03932756
0.01948495
0.04656
-0.01025804
-0.04688243
0.04556487
-0.008356945
-0.05310902
-0.04587208
0.05225506
-0.04446541
-0.0006695994
-0.008614376
0.04437477
0.05257463
-0.02164568
-0.02073174
-0.0008447957
0.04128173
-0.007550325
-0.004999343
0.009511501
0.02181048
0.007214289
0.02856729
0.03101927
-0.007543847
0.0172921
0.02298209
0.01157403
0.001036702
-0.03040252
0.02342959
0.004314735
-0.04907321
0.008909742
0.0503176
-0.0387877
0.04021165
0.03004241
0.01308805
-0.03433407
-0.05391485
-0.03523463
-0.03552689
0.005908613
-0.003744469
-0.008204123
0.03139614
-0.02268253
0.009466349
-0.0471371
0.05107876
0.01662873
-0.03379358
-0.01542623
-0.0387249
0.003122655
0.01698868
-0.02996434
0.02399136
-0.03196004
-0.03097779
0.01325428
0.03794614
-0.02759537
0.02452105
-0.05029367
-0.004935749
-0.0005643418
-0.008788099
-0.0004940094
-0.04466044
-0.002343023
-0.05361601
-0.005964091
0.00601172
0.02415948
0.04729949
-0.03853408
-0.02327825
0.003731543
-0.03328679
-0.01710103
-0.04963131
-0.02000869
-0.008230144
0.04749047
-0.009072705
0.05189244
-0.02650904
-0.03784633
0.04177577
0.01087158
-0.04732048
-0.03517866
0.01592703
-0.04593115
0.004141437
0.05220776
0.0005913781
-0.01870768
-0.0276727
-0.02148155
-0.02669682
0.02466668
0.0007507174
-0.01739867
0.00046453
0.01784816
-0.04272412
-0.03417102
0.04938084
0.004323897
-0.04567196
-0.05015033
0.006005507
0.01327157
0.01387208
0.02637939
-0.04942066
-0.006722956
-0.008455734
0.01848208
0.05331912
0.05077222
-0.005330216
-0.01094449
-0.02279054
-0.01722898
0.01245087
0.01763378
0.0173951
-0.05268671
-0.0257506
0.01826938
-0.01259528
0.01583555
-0.04161842
0.04048173
-0.01649981
-0.05297042
0.02814718
-0.03101262
-0.02304921
0.04727445
-0.04551523
-0.04277799
0.01432604
-0.03894957
-0.02221898
0.03434967
0.04233631
-0.05232337
-0.0004595818
-0.00183384
-0.04836259
0.02787703
0.05302729
0.01956854
-0.01593134
0.05034925
0.02862411
-0.03171577
-0.04803778
0.01101139
0.01432793
0.01947128
-0.05460853
-0.01330092
-0.05053328
-0.04874253
0.008836246
-0.02252032
0.0304223
0.04788068
0.04921568
0.02814123
0.04066737
-0.02489624
-0.01614786
-0.04493272
-0.002754302
-0.0256909
-0.03500767
-0.03366596
-0.04176317
-0.00148571
-0.05482479
0.01419433
0.04411373
0.0485824
0.0007579571
-0.04884809
-0.007157212
-0.01093822
0.01267617
0.04644368
0.0392413
0.02758474
-0.04357316
-0.006202101
0.01728572
-0.02120595
0.04357689
-0.02753678
-0.03129025
0.04101542
-0.05562621
0.02976324
0.02922041
0.0408958
-0.02710389
0.04019759
-0.03639523
-0.05262752
0.04779853
-0.03975497
0.01633246
0.02447568
0.0418643
0.05162876
-0.04271274
0.02980326
0.04773473
0.02078433
0.0007031699
0.005672965
-0.04509619
-0.0409904
0.0397816
0.02879213
0.01566667
-0.0407405
0.0319297
0.01228611
0.05097523
0.05013345
-0.00945621
-0.04490749
0.04594568
-0.02412227
0.0008438166
0.0364979
0.01596839
0.0366083
0.04977096
-0.0007035362
-0.008833109
-0.01463064
0.04271055
-0.004154122
-0.04642575
0.04054925
0.0453606
0.0521766
0.05190904
0.02767929
0.03657334
-0.008211424
0.003570593
0.03135899
-0.02167869
0.05152084
-0.04767092
-0.05157344
-0.01756701
0.03271285
0.01971623
0.04560577
0.04603534
-0.05169851
-0.04614037
0.03056899
0.03173495
0.04689459
-0.003382985
0.05138998
0.02443107
0.04478607
-0.04395283
0.0203517
-0.006083335
-0.02810145
-0.0003261217
-0.0190761
-0.02820023
-0.03854412
0.04081816
0.01048312
0.03918092
-0.05167839
-0.013502
0.03535689
-0.02860552
0.04552635
-0.02334507
0.02866338
0.05025753
0.006030615
-0.03962446
0.01522679
0.04703599
0.04346174
-0.05363576
-0.01103805
-0.007931738
0.02724925
0.03371422
4.060895e-05
-0.02072188
0.0254015
-0.009957917
-0.02796307
-0.00813302
0.05140437
0.04421414
0.04147832
-0.01024593
-0.02169453
-0.01407255
-0.0347672
-0.01308931
-0.01408633
0.02344163
0.02753287
0.04017266
0.02811455
0.03555435
-0.03883243
0.02624405
0.0135007
0.01964672
-0.01297157
0.0222226
0.002918779
0.02888355
-0.04164289
-0.005530312
-0.0181587
0.01096074
-0.05307373
0.04362296
0.03029386
-0.0552237
-0.05493224
-0.0245533
-0.04482545
-0.04121008
0.02589022
-0.03837834
0.0207774
0.008279224
0.05039499
-0.01108971
0.01143547
-0.01259175
-0.02454312
-0.02655875
0.04257091
0.01719652
-0.04144109
-0.03178637
-0.0229904
0.02996915
0.03076333
0.007263684
0.01112436
0.006192157
0.0450018
0.01033561
-0.0005807248
0.0110325
-0.04877681
-0.01822676
0.04834412
0.0189394
-0.04665427
0.03110982
0.0482755
0.03273078
0.01192386
0.04300247
0.05012487
-0.01957818
-0.0446622
0.00652212
-0.0201743
-0.04958636
-0.0386186
0.0287519
0.01074618
0.02674729
0.04706879
-0.04832838
0.03578717
-0.008951936
0.0227952
-0.02291136
-0.04033737
-0.05444008
0.04280095
0.04638919
-0.04206352
0.01558641
0.00914069
-0.039611
0.0057427
-0.05100385
-0.04923767
-0.05321155
0.009664562
-0.002614126
0.03036017
-0.03919089
-0.0131888
-0.005351222
-0.0301983
0.01417316
-0.04310453
0.02551826
0.02514403
-0.02318955
0.02838692
0.05034569
0.00305622
0.01946544
-0.01605632
0.04184933
-0.01056466
-0.0327178
0.01410468
-0.04452435
-0.01380018
0.01692507
0.05031762
-0.05395654
-0.01840335
-0.04724797
0.03813457
-0.01402436
-0.04876641
-0.0436003
-0.04086704
-0.05206433
0.005927969
0.003740143
-0.008420202
-0.00653332
-0.02748309
0.01904806
0.05377558
0.03701046
0.04860579
-0.03696804
0.01950611
-0.04706377
0.03143094
-0.005327002
0.03989503
0.03765713
0.02671776
-0.0416591
0.02132068
0.01763865
-0.02536852
0.001738918
-0.03725746
-0.009733511
0.004068536
0.0108161
0.001579551
0.02808812
-0.04800433
0.03348747
-0.008719459
-0.02063849
0.04571912
0.03167626
0.05262109
0.03292904
-0.04461031
-0.04530474
0.009255915
0.001848155
-0.04019514
0.0381414
-0.04936412
0.03357536
0.04105649
0.03148742
0.03033706
0.013737
0.03597842
0.04850815
0.02142007
0.01795152
-0.005665101
0.004215182
0.04961164
0.03717235
0.04344167
-0.01709027
0.04416199
-0.03367795
0.01410349
0.01109081
0.02969662
-0.00336996
0.01920797
0.002783843
0.01594002
0.02599611
-0.0538928
0.009991994
-0.028288
0.01996372
-0.01410056
0.0504982
0.02400888
-0.003457852
-0.03454321
0.01253799
-0.003397622
-0.007319819
-0.01059166
0.04063422
0.03747486
-0.01217619
-0.01829977
0.01562854
0.008494615
0.01096845
-0.007159654
-0.04742251
-0.04819105
-0.01471961
0.02891815
-0.01790722
0.03879954
0.03901197
0.03168035
-0.04663806
-0.02630048
0.004817601
0.03234102
0.02391571
0.01719278
-0.02950832
-0.02929593
-0.0331803
0.01758654
5.205985e-05
0.01509755
0.02447801
-0.04309382
-0.04168541
-0.02086865
-0.01780072
-0.03983279
-0.003840262
0.00527298
0.03095923
0.01578364
-0.03673229
0.0122173
-0.0523604
-0.04274813
-0.0007954102
-0.01891392
0.05295474
-0.02931329
0.03861164
-0.001114763
-0.05444744
-0.002475708
0.0306926
-0.0166622
0.006071074
-0.01560821
-0.01346014
-0.03978578
0.03792041
-0.004196011
0.03229363
-0.02048067
0.009881451
-0.001010445
0.03605247
-0.05528726
-0.001147431
0.03299242
-0.04124483
0.01361573
-0.03809356
-0.008629294
-0.01047145
-0.01627012
-0.003119447
-0.01515139
0.04312118
0.01518131
0.02349726
0.004715269
0.01550384
-0.01221686
-0.04192501
-0.0146788
0.0436836
0.02666657
0.031944
-0.03956912
0.0522942
-0.00725349
-0.02691641
-0.03753702
-0.03431712
-0.03758166
0.04575359
-0.04247013
-0.0184704
0.001348976
-0.005277644
-0.01919956
0.02796476
0.04417433
0.04789889
-0.01044763
0.0324636
-0.04648141
0.005023683
-0.0183656
-0.008369451
0.02872775
-0.01993963
-0.0370786
-0.002313335
0.05171278
0.008157637
0.01728791
-0.0412125
0.0159839
0.04048679
0.01034251
-0.005950242
-0.0225372
-0.0004141071
0.006512168
-0.02050055
-0.0327503
-0.03363257
-0.02367215
0.04296954
0.03003031
-0.02471334
0.03117106
-0.03203283
-0.05224263
-0.05368031
0.03043288
-0.02308178
0.04539521
-0.009013831
-0.03638606
-0.004595793
-0.02927793
-0.03598586
0.02608273
-0.03826454
-0.03810529
-0.009821126
-0.01045809
0.01393802
0.04945841
0.01456922
-0.04874079
-0.02186679
0.04001227
0.02269548
-0.02900656
0.04960317
0.0128065
-0.0008780359
-0.007242352
0.02170658
-0.03598119
0.04922357
-0.04447477
-0.01927955
0.03392769
0.04958255
0.025841
0.01281582
0.04187969
0.0197465
-0.02226301
0.03091622
0.0535934
-0.04054891
0.005549159
0.03550451
-0.03754562
-0.03842975
-0.01502807
-0.04982536
0.04008798
-0.03239535
-0.02193792
-0.04624307
-0.02568076
-0.009030507
-0.02874778
-0.002000654
-0.01100155
-0.02376413
-0.03413063
-0.05510397
0.04348619
0.0207012
0.017929
-0.0257417
0.007513389
0.05222889
-0.01159593
0.04053771
-0.01084245
-0.030663
0.02229793
-0.04078759
0.05248443
-0.05289049
0.04454916
0.01068904
-0.02614671
-0.03868462
-0.0001708492
-0.02227434
0.01967589
-0.03037396
0.00861316
-0.01219475
-0.01213291
-0.03791426
0.02736887
0.03642463
-0.05054013
-0.03196759
-0.03376251
-0.006392822
0.03963039
0.0482738
0.02346691
-0.02999206
-0.003299017
0.01078935
0.01986742
0.002310192
0.00507378
-0.002094488
-0.04809088
0.01924868
-0.04773836
0.03408871
-0.0226484
0.04181444
0.0362373
0.02781352
-0.04532038
-0.02853906
0.008403633
-0.02520127
0.047046
-0.03835098
0.02986908
0.01925913
-0.04307915
0.03116377
-0.01152347
-0.016287
-0.00654582
0.00736523
0.02935019
0.02540116
0.04071357
0.02405271
0.02188364
0.05185557
-0.039998
-0.009501826
-0.02840084
0.05106407
0.01309106
0.04765933
0.0281605
-0.05574034
-0.05335484
-0.04177514
-0.01545365
0.01005899
-0.006637154
0.01380015
0.001048064
0.001672227
0.03939331
-0.01738695
-0.05081496
-0.05390479
0.03402573
-0.02332752
-0.0340334
-0.0267984
0.0287546
0.03421976
0.02329503
-0.03231411
-0.04547382
-0.0006849739
-0.0008348112
0.001968307
-0.04592604
0.04674455
0.05104726
-0.0540437
-0.01803074
0.02847298
0.03074379
-0.03294091
-0.02440904
-0.02685632
-0.005131729
0.029435
0.0436114
-0.01588018
-0.01197431
0.0498425
-0.02816663
-0.03903291
0.0492223
0.0352109
0.03761725
-0.04616676
0.02192629
-0.02146754
0.0124404
0.00955749
0.02033348
0.007199694
0.03046365
-0.03932237
-0.01598346
-0.02786662
-0.0509027
0.03565222
0.0485174
-0.009694302
0.05241038
0.003938777
0.0009032301
-0.02355446
0.01467262
0.04482684
0.02911173
-0.04333555
0.0002037681
0.03403814
-0.0096647
-0.03438781
0.01460584
0.03871653
0.05169332
0.04530396
-0.008989524
0.02249679
-0.02859558
0.004517474
0.05066558
-0.01327661
-0.01368348
-0.01042867
-0.02478384
0.01673437
0.02161161
0.002784738
-0.01363612
0.03794236
-0.0175746
-0.05444954
-0.02865748
-0.0108084
-0.0247977
0.02213527
-0.05435602
0.01058832
0.04439964
-0.02373434
0.04201892
-0.02618383
0.04354564
0.0369809
-0.01056909
-0.01024318
-0.03707496
0.04803982
0.03072122
0.03986398
0.004586804
-0.0118139
0.005212262
-0.04379129
-0.004848233
-0.05033884
-0.02720539
-0.005721368
0.01800985
0.009862009
0.02345868
-0.03203219
0.02198998
0.0229995
0.02255723
0.03156265
0.02546619
0.04755121
-0.04631462
0.00786558
-0.00996776
0.00981922
-0.05129442
-0.0160994
0.01030215
-0.05195765
-0.01019501
-0.04077086
0.0509679
-0.01917987
-0.002137178
-0.01125388
0.02667392
-0.04122034
-0.009659553
-0.02630346
0.05089689
-0.02505898
0.003589864
-0.04279967
0.03071304
0.05039674
0.04362115
-0.04057799
0.03358009
0.00383782
-0.05185196
-0.03630992
-0.0512761
0.008421048
0.0461852
-0.01377733
-0.004975553
-0.024986
0.02823025
-0.001271332
-0.0435079
0.03641031
-0.02877877
-0.05222841
-0.03223763
-0.006664961
-0.05501461
0.05051133
0.014914
0.01919133
0.010233
-0.05171108
0.03749298
0.03957454
-0.03371678
0.03392632
-0.03723512
-0.0169085
-0.03791585
-0.0006384476
0.03429377
-0.05509225
0.04553438
-0.007470213
0.02818776
-0.02228438
-0.003683121
-0.02982242
0.01503693
0.0356472
-0.04066997
0.03469389
-0.02152216
-0.02249922
0.007592904
0.04558405
-0.0142352
0.05085214
0.04071214
-0.02902227
0.02882548
0.04697536
0.04825265
-0.05386765
-0.022446
0.009001772
0.009069294
0.04084895
-0.01047502
0.03965886
0.01784552
0.02141041
-0.01345004
0.01753597
0.0139253
0.02868875
0.009423722
0.02105469
0.0267363
-0.02020295
-0.02421695
-0.04778459
0.001100562
0.01463235
0.05309458
-0.007653595
-0.01248153
0.04885201
0.0108564
-0.001309588
0.01407639
-0.02687981
-0.01995838
0.01292314
-0.0008661352
-0.02689349
-0.02277134
0.03264299
-0.0535056
0.02208688
-0.008791958
-0.01871374
-0.04430269
0.001302153
-0.02272645
-0.02165771
-0.03243084
-0.006279417
0.00943711
-0.04360909
0.04243712
0.03276984
-0.002688081
-0.0212703
-0.02113881
0.03015275
-0.01882815
0.02821115
-0.009049812
0.04090564
0.04949382
0.02129119
-0.01245401
-0.01907422
0.02664574
0.004890018
0.02562283
-0.006839603
0.03938599
0.04235361
0.0515028
-0.05376683
-0.05432854
0.04636613
-0.05201138
0.03820322
0.05059741
-0.01396392
0.04523027
0.02975812
-0.04878016
0.03998307
0.0411416
-0.02676048
0.01775758
-0.05538539
-0.05086273
0.02008705
0.03204935
0.00717829
-0.04440636
-0.02622271
-0.05578877
0.05351058
0.0003308811
0.01561295
-0.04566751
0.003838633
0.02697162
0.04026236
0.0389298
-0.01812511
0.02751817
0.0306674
-0.01667916
-0.03053558
-0.006341762
-0.006356455
-0.04887135
0.02522359
-0.02874105
-0.04733877
0.04344625
0.03062504
-0.004886142
-0.03086334
-0.04742093
0.03382541
0.03363278
-0.0160086
0.02166401
-0.05504419
0.0299526
-0.02111499
-0.01678851
0.004839722
0.02638162
0.02118045
-0.01988772
0.04562606
-0.01853584
0.05095629
0.03544527
-0.03447386
-0.04704601
0.05143386
-0.05366206
-0.04034418
-0.001686619
-0.0007827582
0.04065928
-0.04975492
-0.04652324
0.009101109
-0.02139402
0.03884661
-0.05291279
-0.05027393
-0.02347398
0.0334868
-0.0005955844
0.04645348
-0.002062165
-0.02482456
-0.01229209
-0.002990872
0.04315362
-0.0005206713
0.04628495
-0.03290624
-0.03255322
-0.0126465
0.0516283
-0.03988505
-0.04340171
0.028623
-0.04260414
0.02793468
0.02245178
-0.02747753
0.05214674
-0.04826606
-0.02604746
-0.04956132
0.019737
-0.02058011
0.02235417
-0.009912794
-0.01294801
0.03351325
-0.04521021
-0.05067835
0.04265149
0.05121342
-0.01710943
0.01474621
0.02874339
0.0379299
0.03154811
-0.04454182
0.03243912
-0.01807646
-0.04917605
0.03826175
-0.03207267
0.02467054
-0.05296482
-0.02738964
-0.00725193
-0.0551212
-0.0116445
-0.01168155
-0.03208671
0.002113123
-0.0186984
-0.0353773
0.02912946
-0.03809744
-0.03087422
-0.001585938
0.05228221
0.002835076
-0.05256137
-0.0172542
-0.01009591
-0.03248574
-0.01102257
-0.04947747
0.01135445
0.03864704
0.01609845
-0.01566305
-0.0163354
-0.008962626
-0.02918861
0.04850037
0.04913942
0.03678442
-0.007468236
-0.01330198
0.04051158
0.01337537
-0.006117523
-0.04900684
-0.02520543
0.006152351
-0.0486224
0.01540324
0.03340815
-0.01799048
-0.017746
-0.007432236
-0.04687371
-0.03442811
-0.009257518
0.05327983
0.001287237
0.04632282
-0.03189956
-0.01291401
-0.02101996
0.04886899
0.0312693
0.009366288
0.03369927
0.009486935
-0.007055605
-0.02590494
-0.04317838
-0.005630071
-0.03599434
0.01404601
0.001250189
-0.006698697
0.04806607
0.01690435
0.006473509
0.03690089
0.04989441
-0.05402513
0.03459784
-0.02067922
0.03634548
0.003701
-0.04472912
0.01953427
0.004606773
0.02720015
-0.01830603
-0.01281766
0.0175338
-0.002615215
-0.02709805
-0.001330374
0.03474431
-0.03027408
0.04229055
0.006560946
0.03998574
0.03862961
0.004164787
-0.001330928
0.05237959
0.02824384
0.02265621
-0.03012945
0.04389144
0.003792074
0.0241099
-0.007455548
-0.03169057
-0.006752395
-0.009831298
-0.004109698
0.04736207
0.04084394
-0.03947094
0.03192426
-0.04610249
-0.01225109
-0.05432655
-0.03134367
-0.04443626
-0.05079322
-0.04116746
0.04205136
0.01726643
-0.01939818
0.03214755
0.04384021
-0.03409126
-0.01707089
-0.01934765
-0.04338681
-0.001931572
-0.05025381
0.01929971
-0.001317832
0.04967787
0.005850218
-0.04288721
-0.01019725
-0.04133669
0.03406413
0.0005227709
0.03268409
-0.01794999
-0.03220642
0.009798528
-0.016171
-0.008658117
-0.001034927
0.05074577
-0.02491012
0.04836229
0.02626929
0.02043012
0.0109269
0.002259657
-0.05061704
0.01886135
-0.04644766
0.02811892
-0.03029223
0.004843257
-0.04866386
-0.02747103
0.04570343
0.04735446
-0.03215995
-0.04322665
0.01610245
-0.002896746
0.0001706911
0.003414693
-0.05110234
-0.01698228
-0.01772171
-0.03496342
-0.01808855
0.005450909
0.008748226
-0.02860447
-0.006128203
-0.008119732
0.02145955
-0.02254478
0.0008849703
0.00635152
0.03908493
0.002013838
-0.03192393
0.01823873
0.02307934
-0.03580183
0.01337029
-0.05199413
-0.008540939
-0.05495164
-0.009591561
-0.03693661
-0.05557893
-0.02278629
0.007976814
0.03972656
-0.01112996
0.03335784
-0.0470174
0.01945398
0.006105579
-0.009411026
0.0171561
0.01895382
0.03108514
-0.03560755
-0.001778833
-0.02622838
0.0131377
-0.04940126
-0.02278302
0.005842129
0.02854778
-0.0148576
-0.0009369435
0.03319273
0.003663085
-0.05214738
0.005639761
0.04568538
-0.01541349
0.03963375
0.01498742
0.004550947
-0.05120556
0.02296422
0.003648952
-0.05230077
-0.03087198
0.05215061
-0.02775222
0.02113067
-0.01115414
-0.03329824
-0.04251778
0.03789611
-0.01149094
0.04356121
-0.008173894
0.01859171
0.01399443
0.04605939
0.04264466
-0.05150496
-0.0004700731
0.02093105
0.0379371
0.03553244
-0.03624789
0.02320862
0.003656635
0.03769642
0.0005218139
0.01786891
-0.009163217
0.00974161
0.008047989
-0.0289828
0.02436731
-0.0006994334
-0.02893264
0.01100772
-0.0003283791
-0.0112053
0.01076219
0.01810244
0.04153852
0.04227105
-0.04562037
-0.04014375
-0.02808604
0.03647201
-0.0229683
0.0009333927
0.006104378
-0.05355722
-0.00418
-0.02786817
0.03148204
-0.01990882
0.03173837
0.01827269
-0.01121956
-0.04894739
-0.03653479
-0.04128726
0.04165669
0.0003425439
0.01449344
-0.02883125
-0.01131391
0.01715221
0.01787968
-0.03347608
-0.03174928
-0.02987335
-0.03737184
-0.05016223
-0.01474872
-0.03410561
-0.01363312
-0.04473257
0.02096802
0.02981925
-0.03724682
-0.04457174
0.02449266
-0.003877711
-0.04843441
-0.02678793
0.03738183
-0.002600818
-0.04400301
0.021557
-0.01751998
-0.03850655
0.04950504
-0.009520028
0.01636844
-0.009168327
0.0004743347
-0.02821781
0.01727149
0.04765723
-0.02855576
0.0495112
-0.03760469
-0.01660488
-0.01012289
0.01840402
-0.001136232
0.009842562
-0.04639186
0.003365192
-0.0127838
-0.037657
0.05215678
0.002123251
0.02879741
0.02235491
-0.02982737
0.05212037
0.02338962
0.002957683
0.01816449
0.04275581
0.0254289
-0.02765075
0.008868722
0.01449568
-0.03806062
-0.0363464
0.01820672
0.03181303
0.006075048
-0.01928539
-0.01349726
-0.02233463
0.03170312
-0.04206438
-0.02934615
-0.029161
-0.01637614
-0.02221633
0.03569173
0.01406295
0.02762663
-0.004578516
-0.03822258
0.04556616
0.03566903
0.01579364
-0.03701729
-0.02160086
0.04088137
0.02550898
0.04149275
-0.006903456
-0.04157541
0.04153218
0.01422484
-0.04771078
0.01148531
-0.05024545
-0.009651543
0.02187935
0.04958428
-0.01477467
-0.02838334
0.03956143
0.01329143
-0.02352657
0.03841952
-0.01482749
-0.04029673
-0.01351835
0.05286238
0.04941669
-0.04222276
0.03962176
0.03918088
0.04604745
-0.02738753
-0.01320716
0.05171371
0.03839026
0.01076695
0.04608211
0.04925118
0.01854479
-0.02100187
0.01885516
-0.02132454
-0.02870131
-0.04556019
0.0349543
0.02618596
-0.0208392
-0.007728537
0.007530349
-0.005122382
-0.03831328
-0.005284882
-0.0332798
0.002919375
-0.01099381
-0.007066315
-0.05432781
-0.0452832
0.02891712
-0.04651415
-0.05326727
0.002640332
-0.04472742
0.04418916
-0.01008537
0.04988813
0.02615866
0.03251741
-0.0456171
-0.01194481
0.01612557
0.01193471
0.05315068
0.05253771
-0.03652309
0.04404504
0.04790155
-0.02188359
-0.009492028
0.04068332
0.01830481
-0.00336342
-0.03227987
0.04048401
0.03915353
-0.03209208
-0.02539845
0.02129212
0.02667895
-0.04540601
-0.05455897
-0.05005613
0.020483
0.009980088
0.007919655
0.05259595
0.01939698
-0.005095288
-0.0288101
0.0478407
0.01283999
0.04293624
-0.03374203
0.002050571
0.01404104
-0.02785525
0.02210597
-0.005617396
-0.02726957
-0.05077733
0.02185609
0.02358018
-0.02816098
0.002221871
-0.03336119
0.04646976
-0.00373197
0.02012238
0.05297132
0.01784697
0.05131933
0.02783767
0.02485736
-0.02762588
-0.0504256
-0.03732391
0.01125504
0.02020744
0.03615054
-0.009755067
0.01164827
-0.01198729
0.0371981
0.04787699
0.03322524
-0.01372866
-0.03763792
-0.02138838
0.0489506
-0.03074115
0.01940703
-0.009983604
-0.02868017
0.04507952
0.02421595
-0.02350046
0.03334961
-0.02029941
0.01876388
-0.02373427
0.03308783
0.02731505
-0.04719265
0.05255444
0.03885452
0.03931149
0.03157189
-0.007285551
-0.01907797
-0.02665567
0.006200406
-0.01857397
0.02025313
0.04459533
-0.01275452
-0.04528832
-0.02345036
0.0334559
-0.0230815
0.04135942
-0.0006095396
-0.01091998
0.01902374
0.02928889
0.01502658
0.0155666
0.02997325
0.04394878
0.006787265
-0.04053763
0.007109516
-0.05450735
0.01888142
-0.003719578
0.0466834
0.0214097
-0.002864771
-0.03334668
-0.02379242
-0.04404122
0.04611104
-0.05467502
-0.01808355
0.05048984
-0.0457624
-0.02426646
0.03602073
-0.001140561
0.03943715
-0.03311079
-0.002744385
0.05102959
0.03308231
0.01332888
0.03740971
-0.005239769
0.006629482
-0.03738924
0.01536612
0.006029375
-0.03417542
-0.01032857
0.04781457
-0.007619523
0.02941059
-0.008426856
-0.03149714
-0.05224809
0.04197817
-0.02830712
0.009800869
-0.05329055
-0.04421567
0.03790374
-0.006823381
0.0181838
0.01758617
0.03732403
-0.005641858
0.04590891
-0.04142919
-0.03819028
0.04725012
-0.01489561
0.05174549
0.0458696
0.04149016
-0.01787341
-0.03847749
-0.00404026
0.03399843
0.01594209
0.0238244
0.04713485
0.01447624
0.0003829455
0.02163541
0.04122107
-0.02592019
0.0402056
-0.04991044
-0.04961101
0.006256172
-0.04836366
0.01824925
0.01381169
0.02342056
-0.0242595
-0.01480696
0.01983259
-0.0543508
-0.05537246
0.04882926
0.003458309
-0.04049807
0.02770475
-0.02973183
-0.01224909
-0.03667257
0.04401875
-0.0532641
-0.03052348
-0.05228695
0.03691944
-0.04784842
0.04115227
0.05002287
0.01856516
-0.0008960968
0.03240292
0.006529842
0.02597852
0.01369338
-0.00591085
0.04504859
0.01306547
0.02228572
0.02085212
0.02608928
0.01391275
0.01156334
-0.009284487
0.0180057
0.04485912
0.01182645
-0.03957445
-0.02038346
-0.03302162
0.05394672
-0.0003423066
-0.01166975
0.01415811
-0.01816625
-0.002767385
0.001067335
-0.03246628
-0.01259453
0.001677109
-0.04925687
-0.02305106
-0.02437493
0.0157138
-0.005717549
-0.04994735
-0.0243966
-0.03596256
-0.03810217
-0.05018715
-0.006153728
-0.002868554
0.02469468
-0.04997813
-0.02408979
0.05106548
-0.003655183
-0.01882737
0.006857521
0.02572177
-0.00520372
-0.02465959
0.03702219
-0.02046457
0.04950302
-0.04930823
0.01235325
-0.01688731
0.007412267
-0.05182582
-0.02255787
0.01909388
-0.0469019
0.02883511
-0.04403412
0.03425522
-0.04817229
-0.04120762
-0.02048786
0.01660499
-0.04005417
-0.006443537
0.04778681
0.03165584
-0.01596688
-0.001378112
0.03877922
-0.02141762
-0.008453034
-0.009044904
0.03198052
-0.0002958577
0.0152509
-0.02020367
-0.01052427
0.0001180964
0.02776893
-0.05398867
-0.005404397
0.02585771
0.0159562
0.0001473322
-0.04996138
0.03226592
0.0271621
-0.01056659
0.01560435
0.0385808
0.035905
0.03489443
0.002522325
0.02524605
0.03167551
-0.05395535
-0.02005014
0.04871775
-0.001317958
-0.04829304
-0.01914937
-0.05201397
0.004582277
-0.01259955
0.008534666
0.02076496
-0.004132371
0.05114462
-0.031714
0.01282689
-0.03224832
0.04457781
0.0227979
0.01053224
0.05191384
-0.01784503
-0.04325714
-0.006138601
0.02350335
0.04929872
0.009195617
-0.0117295
-0.0001161791
-0.01783549
-0.03048696
-0.02050035
-0.01946967
-0.008246612
0.04820911
0.01377739
-0.03773574
0.05087375
0.016733
0.0001971697
0.003828372
-0.02805778
0.01412151
0.05121486
0.006661526
-0.03024034
0.04666669
0.03791735
0.01132042
0.04076562
-0.03115466
0.004149183
-0.01205371
-0.05069551
-0.03076217
0.01432474
-0.03175207
-0.05287396
0.003111955
0.003801099
-0.02922058
-0.05325912
0.03263119
0.03652511
0.01467137
0.04270273
-0.05177946
-0.01107776
-0.03453101
0.03115177
0.02185348
-0.01386708
-0.04627634
0.02145738
0.02390183
-0.01658131
0.053232
-0.02474991
0.0334825
-0.04289054
0.03403738
0.03952959
0.04347039
-0.0462011
-0.01359707
-0.04255074
-0.04588141
0.019305
0.02417867
0.05240178
-0.04104945
0.005350591
0.04692126
0.02990469
-0.02202679
0.01182846
-0.04922475
0.02760201
-0.003192879
0.01004651
-0.02732155
-0.007662484
-0.01801257
-0.01227494
-0.004220502
-0.003997815
0.003348597
-0.01917965
0.02204776
0.005474127
0.05442817
-0.02357144
0.0004290385
0.02601634
-0.0116477
-0.02994522
0.01948136
-0.05107956
0.01511747
-0.04884905
0.0210236
0.01122885
0.02843018
-0.05335494
-0.0134735
0.03484476
-0.00286887
-0.04765458
-0.01442582
-0.02088641
0.01768135
0.004624182
0.03794723
0.004452997
-0.009588026
0.01680902
-0.03952751
-0.02599995
-0.01319487
0.01095423
-0.04702876
0.05232581
-0.01382163
-0.05155354
-0.02612045
0.02214424
-0.02933304
-0.02044304
-0.04690187
0.02057102
0.02637875
0.04463388
-0.03399327
0.02325151
-0.03380277
0.04488241
0.04718593
0.01850171
0.04019419
-0.01866525
0.01473753
-0.03617096
0.003635287
-0.03452812
0.05349169
-0.03487965
-0.0306997
-0.03853585
-0.04440131
-0.04867033
0.02675763
0.01118218
0.05413039
0.04424301
-0.01832802
0.01139687
0.003419883
0.01758304
0.04922517
-0.02222359
0.02273173
0.03462905
0.04283414
0.02125253
0.04609223
0.01362417
0.03408414
0.001203629
-0.01729916
0.04044672
0.0425674
-0.05127763
-0.03363242
-0.04771132
-0.03739673
0.02460166
0.05129352
0.02099559
-0.04460511
0.004573218
-0.03650233
0.03160651
0.02072878
-0.02200758
0.04315615
0.03703371
-0.02152601
-0.006628148
-0.04285399
-0.03913734
0.00211169
0.03684703
-0.002554073
-0.02687783
0.05261271
-0.04739227
-0.01683551
-0.05437464
-0.03617394
0.01238504
0.04948785
-0.01112301
0.01136055
-0.02340672
-0.02668005
-0.05463302
-0.02768054
0.04852783
-0.01123492
0.03328758
0.04055532
-0.01314339
0.006374367
0.05420898
0.002213808
0.02491484
0.03150788
-0.02325099
0.03522652
0.025303
0.03607867
0.018972
-0.05313737
-0.01600728
0.0294144
0.03515256
-0.03484688
0.003883784
-0.01413319
0.05310749
0.01875413
0.029484
0.02106322
-0.02883026
0.03228701
-0.005851461
0.03521865
0.007035463
-0.03366009
-0.003583921
0.05131513
-0.05387649
-0.03425007
-0.05197111
-0.01236479
-0.04584175
0.01386575
-0.02620763
-0.01115607
-0.04818819
0.0146076
0.02299562
0.03573818
-0.03848392
0.01272982
-0.02483663
0.002209173
0.02806263
-0.04158927
-0.002752195
0.0383972
0.0002762409
0.05254851
0.04374573
-0.00236122
-0.02299282
0.01611304
0.01751168
-0.05313118
-0.03648911
0.02151821
0.04345825
-0.0226673
0.0419514
0.03388189
-0.04459276
0.03430545
-0.01479576
-0.0195773
-0.0359178
0.03200741
0.02946963
0.03415369
0.05226056
-0.04946336
-0.04225526
0.006887226
-0.03804815
-0.02602262
-0.02078935
-0.03941268
-0.02755825
0.04306681
0.01143696
0.01558337
-0.05291305
0.01296224
-0.03579031
-0.0114202
-0.005848381
-0.02313447
-0.02797353
-0.04602342
0.01348947
0.04390149
-0.0215925
-0.03645344
-0.02527957
-0.01710052
-0.04189601
-0.05349514
-0.005405998
0.006473378
-0.05375514
0.02188612
-0.002796705
0.001192356
0.04332776
0.02764858
0.05462944
-0.01668649
0.03967653
0.003616743
0.01387152
0.02977268
0.03514913
0.01309292
-0.04789598
-0.002610736
0.02921872
-0.00502381
0.01100231
-0.03680706
0.03804783
-0.007691308
-0.01764708
-0.03476704
0.04429831
0.02699625
-0.006585578
-0.03794838
0.04500424
0.03079982
-0.01751838
0.03467964
0.03978223
-0.01795513
-0.04729342
-0.01171616
0.05225629
-0.04164018
-0.04245654
0.03096226
0.01176724
0.02278712
-0.02202023
-0.04554304
0.05334119
-0.04951824
0.0482163
0.04665733
-0.04138681
0.03581342
-0.03268106
-0.03511443
-0.0006776332
0.04761189
0.05175758
0.02834596
0.02286041
-0.0323275
0.02215663
-0.01037213
0.04085387
0.02118916
-0.03646141
-0.04326631
0.03109656
0.02534981
-0.0364557
0.03489893
0.01786099
-0.006037228
-0.04030772
-0.01078897
-0.04491892
-0.05266508
-0.02959722
-0.04859804
0.02948808
-0.05062832
0.02074888
0.02988702
0.01656103
0.005209592
0.003599515
-0.02803516
-0.03094059
0.01587625
0.04954126
0.01049949
0.01645243
0.03078199
0.05342844
0.03004107
-0.02397969
0.05407393
0.03283235
-0.01807001
0.01899182
-0.04717882
0.0006978747
0.02111426
0.008282122
0.0004722161
0.03555738
-0.04276086
-0.0462331
-0.003271175
0.04982883
-0.04523901
0.009618611
-0.00610192
0.01682117
0.04667925
0.03918729
-0.03925504
-0.03865917
0.006936173
-0.04444451
0.04156488
-0.01209089
0.01533881
0.004024671
0.02259543
0.001697327
0.04921409
-0.04522894
0.003655586
0.02494469
0.01546777
0.02491275
0.05302197
0.03235656
0.02066252
0.05423381
0.02711821
0.03271192
0.02288848
0.04876134
-0.01922257
0.01677276
-0.04777343
0.03315823
0.04802571
-0.03587773
0.03363341
0.02945023
-0.0351328
-0.0217931
0.01444487
-0.02669995
0.02007096
0.006894643
0.03923161
0.02535363
-0.0515256
-0.006836709
0.03570239
-0.02442371
-0.04381566
0.04913092
-0.03158803
0.0397628
0.04575281
0.01002745
-0.02779733
0.01199167
0.02052216
0.01466624
-0.04776514
-0.03542528
-0.03445558
0.05391635
0.03815656
-0.02672295
-0.003059242
-0.01218286
0.00140048
-0.001286966
-0.001980462
-0.01471131
-0.05128233
-0.03786772
-0.05322538
0.05302028
-0.01172406
0.04706227
0.009033422
0.01227937
-0.003638657
0.03791488
0.02506124
0.04040547
0.04960985
-0.04306158
-0.02145097
0.03242732
-0.04101035
0.04743013
0.003736042
-0.009841434
0.03887015
-0.01496855
-0.01419111
0.05089478
0.01315889
-0.01093731
-0.009140251
0.02215144
0.002703988
-0.0296925
-0.006133235
0.05361595
-0.05256858
-0.03860617
-0.02865946
0.03793134
0.0334107
0.02054439
0.01551514
-0.03373482
0.04893663
-0.01185639
-0.01701757
-0.04556189
0.01403891
-0.03448177
0.03127258
0.03591222
0.01953193
0.0338027
-0.03758319
0.0453097
-0.02516702
-0.02714596
0.05389802
0.03385477
0.03515596
-0.03796371
0.04046615
1.625243e-05
-0.02771538
0.02880457
-0.02760316
-0.02516112
-0.0401941
-0.00192591
-0.01700486
0.01620203
0.03773459
-0.003057406
0.03821751
-0.01112507
-0.01465856
0.01095204
-0.05347566
-0.0345672
0.01846311
0.05304102
0.01748244
-0.02107052
-0.02329055
-0.01128451
-0.004421297
-0.02309692
0.04584021
0.02511282
0.05049169
0.04095626
-0.02872754
0.02103622
0.02538182
0.01683498
0.03916199
0.03096124
-0.02362877
0.02369143
-0.04201379
-0.008018809
0.01301495
-0.03855214
-0.03378782
-0.034918
0.04081015
0.02418971
0.005555328
-0.03703946
0.0181279
-0.03820535
0.00559373
0.03447059
-0.02299939
-0.01085153
-0.04077422
-0.01349629
-0.047924
0.007658935
0.006470389
-0.03234738
0.018523
0.04025078
0.009419447
-0.05335146
-0.001739178
-0.05251307
0.01160227
-0.02710964
-0.03768718
-0.03397923
0.04139298
-0.03707626
-0.05432281
0.0001400494
-0.04749418
-0.03520615
0.030277
0.02710485
0.03885199
-0.002553105
0.03041019
-0.002217532
-0.04175732
0.02509736
0.0544307
0.009955658
-0.03694327
0.05149603
0.02277163
0.03408402
-0.04699663
-0.004838216
-0.03200001
0.0009023009
0.05213133
-0.02609978
0.01603879
0.01575792
-0.04470879
0.01284742
-0.0423955
-0.01974486
-0.006557637
0.04238587
0.04856969
-0.01383857
-0.005941663
-0.04696496
0.05120902
-0.03342112
-0.0208005
0.004148634
-0.04553563
0.04282385
0.004106394
-0.02087643
0.03093507
0.015513
0.03390285
0.01911544
-0.05156704
-0.04124624
0.01690142
-0.0321244
-0.006489385
0.001703563
-0.006511572
-0.01571977
-0.04258146
-0.04147152
-0.04261269
0.03667062
-0.04463384
0.01902375
-0.03689724
-0.01359382
-0.0008069099
-0.04134395
-0.03309076
-0.04493785
-0.03155408
-0.04981146
0.02560086
-0.006290617
0.0005622799
0.02451897
0.02496299
-0.01769694
0.04823389
0.03370938
0.003878893
0.01891797
0.04101813
-0.03250316
0.01554749
-0.004691697
-0.02199834
-0.01612245
0.01608531
-0.03478171
0.01558227
-0.02282868
0.01779901
0.04563645
0.04818312
0.03012282
0.003942783
0.01689199
0.0270631
0.000409263
-0.04090613
-0.04084157
0.0453668
0.03476626
-0.03707973
-0.04402324
0.04199109
-0.02029536
0.05228855
-0.007174234
-0.01525139
0.02723366
0.04124292
0.00307157
0.03441932
0.01208109
-0.008976027
-0.04911838
0.0158531
-0.03653977
0.02953557
-0.04383569
0.05148131
-0.00920056
0.01804363
0.04489305
-0.002207175
-0.01112539
0.004655012
0.04134137
0.0212204
-0.04462008
-0.01496703
-0.05286855
0.0294166
0.003117962
-0.04245899
-0.03085036
-0.02877759
-0.0166664
-0.01019077
-0.01475813
0.02270899
-0.008910572
-0.02908449
0.01818393
0.02805457
-0.03820301
-0.04216719
0.02446053
-0.004759954
-0.00293192
-0.005419202
0.001291216
0.04745437
0.02478197
0.03174608
0.03843636
0.05342535
-0.05270185
-0.04433247
-0.03982748
0.05463791
-0.03791109
0.05144788
-0.02270766
-0.0377938
0.01343061
0.05134428
0.009063874
-0.007778079
-0.03400453
-0.04564031
-0.04328654
-0.02182971
-0.01262924
-0.006376724
0.03234962
0.04330731
0.04521522
-0.03570393
0.01799505
-0.0430701
0.05056587
0.05303165
0.001886742
-0.03472349
0.007568318
0.01952919
-0.03554886
0.05404655
-0.04952493
0.009290294
0.01394338
0.04980922
0.02624111
-0.01189353
-0.004552249
-0.01502025
0.03993524
0.04104412
0.02427845
-0.04486761
0.009226216
0.03061132
0.04091999
0.04710327
-0.03709888
-0.03145192
-0.006083324
0.004874531
-0.04849197
0.001181578
-0.03581375
-0.01807657
0.00272238
-0.007462564
-0.01793463
0.01309426
0.03447235
0.003690035
-0.01996663
0.02505395
-0.04560843
-0.02682353
0.05077565
0.02287545
0.03928381
0.01469948
-0.03157699
0.05121951
0.02579834
-0.05040108
-0.009430666
-0.04223567
0.05472919
-0.02242577
-0.03314371
0.01627737
-0.01631156
-0.0493758
0.006101223
-0.005550001
0.03446784
-0.02086923
0.0368219
-0.04922773
-0.05098105
-0.02365768
0.04485338
-0.04258235
0.04885397
-0.002814769
-0.003263676
-0.00431693
-0.04666502
0.009988995
-0.04062608
-0.01860214
0.04775837
0.00512458
0.001530441
0.04496911
-0.03680125
0.02630478
-0.04671275
0.04972891
-0.05009716
0.02933179
0.01029595
-0.02022982
0.02878619
0.03839103
0.05456139
0.03990682
-0.01798996
-0.01353809
0.03793254
-0.03108093
-0.03397283
-0.01385806
-0.004774043
-0.05263096
-0.02100624
0.02138923
-0.04048585
-0.01779161
-0.04485282
-0.03978171
-0.04956072
0.04902707
0.01851591
0.03279113
-0.03252307
-0.01717907
0.01016903
0.02935537
-0.01467971
0.03377869
-0.009153926
-0.02003114
-0.01588868
0.0227989
-0.02640308
0.01072383
-0.05448933
0.01867288
-0.02279915
-0.01696962
0.02407452
0.01788393
-0.006542997
0.04675542
-0.02455445
-0.03478143
0.001075121
-0.0112306
0.003695617
-0.05136639
0.04832582
-0.02179872
-0.01150138
-0.05132171
-0.04449282
-0.01377584
-0.03598465
-0.009663569
-0.003208874
-0.03626618
0.02157811
-0.01540184
0.01536821
-0.0259378
0.04864132
-0.04958509
-0.04711625
0.02658539
0.04574356
-0.0367294
-0.04065541
0.01401442
-0.03172526
-0.005328993
0.02997115
-0.05432846
-0.001362796
-0.02500286
0.02794574
-0.03167676
0.04184304
-0.02737363
0.001833685
0.004161765
-0.001888601
-0.006035337
-0.02057397
0.01115649
0.02179799
-0.04762754
-0.000530198
0.03211031
-0.04605999
0.01928741
-0.001211057
0.0530259
-0.01328303
-0.04557437
0.01051769
-0.04564142
0.009904852
-0.04847371
0.05456147
0.004946181
0.04187566
0.02417478
-0.01350964
-0.03095269
0.04652023
-0.03551069
0.04680186
-0.001581694
0.04328399
0.01764661
-0.05467071
0.03100813
-0.0007539184
0.01188635
-0.02039442
0.01283782
-0.03430657
-0.003118685
-0.04736103
0.01348859
-0.04953512
0.03414531
0.04418471
-0.004345855
-0.008668549
0.03707846
-0.0423551
0.04165113
0.04242757
-0.04780328
-0.0141615
-0.009761499
0.03999264
0.04400528
-0.04035705
0.009003458
-0.05108541
0.04007783
-0.05231752
0.02394318
-0.04979174
0.006351376
0.02790446
0.03655511
-0.02170973
0.03240297
-0.02712706
0.002117977
-0.05467812
-0.05357362
0.009837227
-0.005208807
-0.03644761
0.02887798
-0.001651909
0.01913274
0.03507579
-0.004155984
0.01988538
0.01679517
0.0276265
-0.02774864
0.01628937
0.009194677
-0.03317811
0.03130329
-0.05322495
0.04709701
-0.02843173
-0.05133902
0.04704965
-0.004903174
0.00981007
0.01944063
0.01906793
0.04697472
-0.007305824
-0.009828258
0.04386068
-0.01510158
0.03916179
-0.04603718
-0.03570606
-0.0531424
-0.03002011
0.01290597
0.03608065
-0.0526245
-0.003577236
-0.009945545
-0.00738837
-0.002619933
0.04082084
-0.02219143
0.04605254
-0.01089971
0.009400821
-0.05413514
-0.01297375
-0.05267904
-0.03686497
-0.04843554
-0.02237082
-0.04360629
0.01376431
0.02277704
0.02963523
0.04296966
0.04368825
0.003453583
0.01612349
-0.00409106
-0.03854777
0.03517742
0.02227444
-0.04532298
0.002486424
-0.03968032
-0.01163
-0.03332794
-0.05064435
-0.0399751
0.03703445
-0.009469019
0.05201299
-0.03476556
0.01899139
0.03605498
-0.03796092
0.01007121
0.01482453
0.0277553
0.03291438
-0.02731973
0.03049066
-0.05270782
-0.01515497
-0.006888921
-0.02803936
-0.005984983
-0.015674
0.03352196
-0.01532787
0.03052612
0.04672366
-0.05419218
0.002464615
-0.01941024
0.001878012
0.0002260813
0.02350812
-0.01733416
-0.02842566
-0.04556531
0.01039635
-0.03721236
-0.0353121
-0.02009556
-0.05030464
0.03768348
0.03242509
0.009182775
-0.004418753
-0.04245474
0.001394493
-0.01556935
0.03487433
0.02401066
0.02747015
0.04933593
0.01983728
-0.02604363
0.02027312
-0.0433018
0.01534577
-0.002365765
-0.008141677
-0.0292161
-0.02070272
-0.02157659
-0.01955932
-0.03414522
0.02352936
-0.0002176515
-0.01762131
0.01716721
-0.04970416
0.005333842
0.04482549
0.01308059
0.00809286
0.007160944
-0.01809447
-0.04886085
-0.02862045
-0.001565711
-0.01049872
0.03868997
-0.03781465
-0.02776141
-0.0009730182
0.01805115
0.004594254
0.04656029
-0.0379271
-0.0008544864
0.01793185
0.04678608
-0.01356044
0.01830519
-0.03059485
0.01390898
0.05257723
0.003678787
0.05201957
-0.047008
-0.0340469
0.03893297
-0.01179075
-0.05356605
-0.01932793
-0.007266385
-0.02195974
-0.03162757
0.03334272
-0.001858779
-0.05416576
0.03964506
0.01053957
-0.04250524
-0.02948023
0.007658159
-0.02806974
0.04715136
0.01945145
0.0008145344
-0.0002914692
0.05100275
-0.04641318
-0.05429369
0.02855537
-0.03137071
0.04779105
0.02318822
-0.01015328
-0.02036737
-0.01644844
-0.04196741
0.02548545
-0.05242084
-0.001138351
0.02099383
-0.001193147
-0.05272434
0.02032547
0.009040136
-0.05336488
0.02049762
0.01990584
-0.01423268
-0.01930623
0.003688974
0.005853519
-0.03458657
-0.001438496
0.03387072
0.04323864
-0.007287606
0.03860786
-0.0444258
-0.03044719
0.0009835153
-0.03125217
0.03785062
-0.00737941
0.03276243
0.03991667
0.05395195
0.04639572
-0.04097031
0.03563688
0.04897596
-0.05417613
0.02619801
0.03615151
-0.05074719
-0.03167054
0.005872462
0.02971169
0.04185315
0.029717
0.02845224
-0.02890747
-0.008491931
0.02883128
0.002883713
0.04425916
0.04821914
0.001254149
-0.05427798
-0.04564913
0.03512868
-0.007005761
0.008751512
0.03793499
0.03764985
-0.04416467
-0.03099383
-0.04940127
0.0511678
0.01854707
-0.01655316
0.03053361
-0.02136369
0.03180077
-0.0072615
-0.02681531
-0.0006112035
-0.0460108
0.02048133
-0.04614824
0.004301778
-0.00649705
-0.003033727
-0.02887075
0.01867449
-0.013968
-0.005968024
-0.03301011
-0.01376372
0.00699303
-0.01357009
0.01551444
0.02563326
0.00246582
-0.008080144
-0.02649303
-0.01512221
0.05282715
0.05468999
-0.01935238
-0.04448295
0.02671952
0.04160472
-0.02532131
0.0128751
0.0499632
-0.02491955
-0.04981492
0.01809983
-0.03138416
-0.01426977
0.01634805
-0.03094546
0.02404495
-0.01246867
-0.05071456
-0.02820896
-0.01385535
0.006897164
0.01726816
-0.03868644
0.03318832
0.005394909
-0.01793501
0.02876504
-0.05017954
0.05120058
0.0489955
-0.00889187
-0.01707495
-0.03267107
-0.01161335
0.007128759
0.01571947
-0.03009017
0.004011361
0.0474986
0.02630472
-0.05252129
-0.03156324
-0.03163661
-0.000157599
-0.04874418
0.04888714
0.03301523
-0.004171217
-0.009362063
-0.04143881
-0.03792745
-0.03645526
-0.03732065
0.05058304
-0.008323297
-0.02461953
0.03804635
0.01039679
-0.02374818
-0.01038685
-0.02999022
0.03421036
0.04958723
0.009588992
0.04175433
0.001517384
-0.02985271
0.02126612
-0.008974126
0.02063747
-0.008412549
-0.03027825
-0.01521505
-0.04759196
0.01789891
0.01761132
0.05175271
-0.03914465
0.004912244
-0.04749468
-0.04937841
-0.003073537
0.02556481
0.05375839
0.01864342
-0.01790449
0.01938693
0.05397593
0.05166019
-0.02143736
-0.01806068
-0.0537651
-0.008823257
-0.03292573
-0.01257198
-0.05196338
-0.04227841
0.0419608
-0.01932442
0.04100083
-0.04566551
-0.0009887415
-0.02013196
-0.03375375
-0.04420271
0.02139241
-0.01707433
0.01249021
0.001265682
0.009805886
0.01729673
-0.05389761
0.01112446
-0.005431202
-0.03010729
0.01173366
-0.003258391
0.006686801
-0.05257079
-0.00612722
-0.02951354
0.03940658
-0.0541802
-0.0129016
-0.01620651
0.02962858
0.04905334
-0.02106653
0.01977241
0.03814046
0.01858384
-0.04637211
-0.0192323
0.008017723
0.05070895
-0.03049197
-0.03802348
-0.01904861
0.01833795
0.03931416
-0.02999304
-0.0332309
-0.03573835
-0.006612155
0.02492339
-0.04931447
0.05181483
-0.01512327
-0.03217784
0.01474569
0.05165704
0.01820942
0.03146621
0.01506593
0.01173202
-0.03955575
-0.02608
0.0457348
-0.02432585
0.01798357
-0.02823844
-0.01161172
0.05174818
0.05388642
0.03341044
0.04075732
-0.0411842
-0.009663893
-0.04546496
-0.001492292
0.002458299
-0.02338568
-0.003645779
-0.0468106
0.03844218
-0.007751074
-0.01182911
0.02680609
-0.03264885
0.02998326
-0.0528984
-0.05475596
0.03894482
0.01302777
-0.006462981
-0.03462272
-0.01119742
0.03690458
-0.04659208
0.05007918
-0.02477437
0.04852689
-0.01804322
-0.03957357
0.04417727
0.04392323
0.009737346
0.02731989
-0.04857721
0.02787533
-0.05059744
0.02823976
-0.05455465
0.05101213
-0.0545624
-0.02600288
0.0316517
-0.05200045
0.04725531
0.04525892
-0.01945046
-0.03857255
0.03212495
0.01109967
-0.007451334
-0.03006712
0.007786005
-0.0003278344
0.0521241
-0.00996131
-0.03775077
0.03464806
-0.01096736
-0.002653984
0.0163326
-0.00473851
0.03178504
0.02177011
-0.03038134
0.01866182
0.01887429
0.007219459
0.00202286
-0.04373315
0.04998669
0.02177035
0.04166355
0.03366201
0.05351279
0.0456824
0.01495978
0.008523362
-0.0002194661
0.01603102
0.04718866
0.0218573
-0.03292714
0.004735357
0.05429982
-0.004353231
-0.02262628
0.003726674
-0.01849048
0.02502601
-0.01108872
0.03404272
-0.0183761
0.03370091
0.01683503
-0.05444837
-0.05370744
0.004345402
-0.005150484
0.05030627
-0.03229301
-0.0494361
-0.0001138917
0.04230311
0.02691556
0.02315778
0.0510791
0.003312179
-0.01340742
0.02466251
-0.05314216
-0.03528604
-0.03189629
0.0398673
0.02028326
0.03037835
-0.009009979
0.008926482
-0.005327314
0.02762221
-0.04585179
-0.01414706
-0.0395574
0.007059363
0.01399311
0.0429198
0.003969594
-0.05172608
-0.00768289
0.01312435
-0.00187901
-0.04591937
0.01695151
-0.04601127
0.02476721
-0.01256525
0.0227018
-0.01891909
0.05258956
-0.0260777
0.002236997
-0.0260165
-0.04020858
-0.04735832
0.02906327
0.02026088
0.04955552
0.01295091
-0.04259627
-0.03654692
0.0470954
0.05117048
0.01962113
-0.05308985
-0.03251563
-0.04878621
-0.0002587493
0.04828952
0.04633719
-0.02170333
-0.0210583
0.02197797
0.01000458
-0.05246171
-0.02672358
-0.02892407
-0.005924892
-0.03583831
0.03968224
0.0124461
-0.02568924
0.02732105
-0.05452267
0.03364209
0.03856717
0.02358685
-0.04064418
0.01714097
-0.009342738
0.03516481
0.05278155
0.05216313
-0.01651008
0.007367895
0.01856205
0.02331927
0.02951306
-0.01570096
-0.05036109
0.02892411
-0.009509895
-0.003114063
0.01716362
0.000593927
0.004033674
-0.0138259
0.03631022
0.04741554
0.01644184
-0.04670329
0.02730506
0.03471682
0.05380794
0.04346033
0.001141122
-0.0401172
0.03254608
0.04110404
0.008862456
0.03698317
-0.0128151
-0.02375519
0.03829415
-0.003168011
0.03851415
-0.05052908
-0.04719856
-0.007652754
-0.01521329
0.0072881
-0.03686778
-0.05392997
0.02549916
0.005411123
0.04230936
-0.03736368
0.01638375
-0.004665551
-0.02154488
-0.03298567
-0.02536485
0.001682907
-0.04245093
-0.0204434
0.02710779
-0.01224526
0.009971398
-0.04087774
-0.03546531
-0.05024801
-0.05243198
0.01791223
0.003642426
-0.05178566
-0.02752301
-0.03694807
0.02752502
0.04301985
0.008788933
0.009983546
0.02714906
-0.03158831
0.01891661
0.01818387
0.03826771
-0.0300561
-0.05347961
0.01529007
-0.005304696
0.03401568
-0.05162074
-0.02724347
0.04738119
0.0114797
0.03484046
-0.03094041
-0.05258201
0.006343171
-0.02703347
0.02671806
-0.00191263
0.05441731
0.01154875
0.05284806
0.0528793
0.0452858
0.01461035
-0.01415966
0.01420287
0.05340972
0.003815606
0.0412445
-0.0129635
0.01796464
0.03152268
0.0008837679
0.02897503
-0.03676818
0.05096884
-0.04172302
0.001722583
0.007293218
0.04850445
0.03935724
-0.03544466
0.03151849
0.004452694
0.02045531
-0.01207007
0.03148825
0.0007911797
-0.03562901
0.05188855
0.04875617
0.02238542
-0.03767558
0.01357801
-0.01881065
0.02497214
-0.05058252
0.001326439
0.03600232
-0.03108165
-0.04630553
0.02856786
-0.02406408
-0.02540746
-0.004515143
0.03912107
0.03293748
0.0380542
-0.04419126
0.02258334
-0.02833367
0.04995396
0.02764921
0.002179917
0.0464139
0.008445357
-0.01055707
-0.02867967
-0.05297538
-0.006411885
-0.004463288
-0.006328889
0.04536495
0.03737038
-0.006274105
-0.03493692
-0.002660488
0.05054658
0.00841689
0.03670427
-0.03552474
0.02159912
-0.05149992
0.03314403
-0.0186865
0.0079259
0.01451218
0.04339469
0.04075382
-0.0355532
0.007036366
0.0415251
0.01131007
-0.02742859
-0.04628744
0.05309345
-0.04995548
-0.03337302
-0.0273409
0.02678864
0.011954
-0.01610178
0.007139317
0.04968714
0.01958439
-0.03707794
0.05410444
-0.01389576
-0.01126131
-0.0468791
0.03414647
-0.02733757
0.01713888
0.04590095
-0.002759091
0.00348294
-0.0325524
-2.519206e-05
0.05463243
0.03507211
-0.02345286
-0.03298437
-0.02644077
-0.0291774
-0.0254155
-0.04952139
0.04301342
-0.01501544
0.03590295
0.02428978
-0.05059014
-0.04117744
0.028666
-0.004323292
0.04153717
0.04702614
0.01940035
0.003549145
-0.02005108
-0.008731417
0.002936608
0.02306411
0.03474742
0.006487114
-0.04516851
0.05254145
0.02931843
0.0007883304
-0.003153426
0.01174201
0.05406624
-0.04532486
-0.03294107
-0.02754699
-0.02912317
0.02731413
-0.03680217
0.05284127
-0.01651509
-0.02033066
-0.04250744
0.04296032
0.03106604
0.04869344
0.01064299
-0.04583172
-0.04899825
0.03155042
-0.04812303
0.03024921
0.01418526
-0.0198215
0.02815196
0.03581856
-0.03559991
0.01267892
0.02450692
0.02054864
-0.01199051
-0.03585424
0.01379687
-0.04306041
-0.01640122
-0.03511748
-0.01398296
-0.002618123
-0.04995874
0.01663889
-0.05389702
-0.03698429
0.001419817
0.03243958
0.03926799
0.0481656
0.03494098
0.006602492
-0.005746473
0.009473067
-0.01473241
-0.008332994
-0.02776854
0.02969303
0.04252914
-0.04894229
-0.02250654
0.04596477
0.008574553
-0.03889287
0.01424414
0.02261019
0.04113804
-0.0416704
-0.02628613
0.05016556
-0.03859503
-0.02688965
-0.01828762
0.03583274
0.04210367
-0.02862114
-0.017651
0.02641638
-0.03592357
-0.04035527
0.03411176
0.02689166
-0.03200964
-0.02614492
-0.01178412
-0.02007737
0.02755117
-0.03451263
-0.02851755
-0.01594381
-0.02692546
-0.05043957
0.0001307523
-0.02847168
-0.01886844
-0.046481
0.0438887
-0.02455254
-0.01394104
-0.04720493
0.01860384
-0.01027249
-0.04822814
-0.004572256
0.04029248
0.004796854
0.01978199
-0.01466583
-0.05025767
-0.04912009
-0.05237969
-0.05165396
0.03634891
0.00922737
0.017445
-0.03176362
0.02187199
0.0404771
-0.02241362
0.05147381
-0.00836343
0.05450871
0.04441599
-0.04903502
0.03753076
-0.008981733
-0.03196878
-0.03515048
-0.05365347
-0.02689259
0.02095378
-0.03257262
0.02106389
-0.01050649
0.01775259
-0.003588878
-0.003949849
0.0008682798
-0.01349884
-0.0272606
0.03238203
-0.04430534
-0.03396741
0.0432572
-0.02871136
-0.005767068
-0.03291162
-0.05016231
0.01921147
0.02454822
0.03546317
0.007306368
0.0001451869
-0.03521229
0.0402838
-0.04056907
0.006899745
-0.05115885
0.01922938
0.04645173
0.00121415
-0.01034904
0.009359303
0.005137607
0.02478926
0.05279275
-0.02108444
-0.04832171
-0.0134769
-0.01850507
0.02093617
0.01147424
-0.02219759
-0.03790347
0.05302186
-0.02556628
-0.0396541
-0.0162285
0.0398094
0.009464049
-0.01711524
0.008570944
-0.02673942
0.04481793
-0.03871525
0.02625822
-0.03657008
0.04943254
0.0089767
0.01921296
-0.03756725
-0.03875974
-0.04548613
0.007366534
0.04995451
-0.01399152
0.01728978
0.02815382
-0.03872318
0.03651592
0.01370855
-0.03874059
-0.04183502
-0.04045441
0.01392689
0.01611934
-0.0515452
0.05252169
0.003257415
-0.01821215
-0.04825803
-0.01185948
0.04888424
-0.02761894
0.05073228
-0.0477874
0.03544373
0.05355402
0.01017826
0.03835621
0.001932178
-0.0008942315
0.03760159
-0.04922509
0.01403272
0.02240201
-0.04883945
0.03914692
-0.05103714
-0.03840535
0.0255338
0.04505801
-0.03170082
-0.01029252
0.02448682
0.04690281
0.05190637
-0.05351849
0.002554846
-0.007806852
0.02408903
0.02023307
-0.003796333
0.01711025
-0.05314506
0.02223033
-0.03618285
-0.0146304
-0.02286036
-0.032958
0.03847871
-0.05048591
-0.02194619
0.008572046
0.04635232
-0.0216442
-0.03509375
0.04764375
-0.04069243
0.05317525
-0.02433569
-0.005902977
0.01729562
0.0130576
-0.03552519
-0.05351821
-0.04676644
0.001881363
-0.04048716
-0.04003998
-0.0442944
0.04311905
-0.0008366827
0.03275137
-0.0518764
0.04787023
-0.03331679
0.04749721
-0.0003727854
0.01555361
-0.02309105
0.0009237995
-0.052381
-0.009384464
0.04649492
-0.03739368
0.001896561
-0.02677513
0.01016358
0.04639708
0.05226396
0.02481504
0.03444492
0.01028975
0.00510873
0.02250491
0.0528343
0.0506367
-0.01925052
0.05431425
0.004579282
-0.04250702
-0.03846449
-0.003351638
-0.01039649
-0.01849052
-0.01663917
0.02929398
-0.02700425
-0.0052647
0.007349932
-0.0452967
-0.04244568
-0.03290467
-0.02873253
-0.02345695
-0.03528018
-0.03480885
-0.03306673
0.006468234
-0.04410812
-0.03454972
0.009685203
0.05325656
-0.0492737
0.03128933
0.01350645
-0.007986305
0.03869725
0.0001011229
-0.02873649
-0.01887887
0.03480432
-0.04525642
0.03200951
0.02979521
0.02569857
-0.04283929
-0.05462386
0.01091656
0.01381905
0.03386692
-0.0155546
-0.03948425
0.0006465499
0.025431
0.02215924
-0.01993671
-0.05440011
-0.0210993
0.05408158
0.006349534
-0.0005623475
-0.04135072
-0.002081298
-0.04294624
0.02799145
0.0199678
0.03210859
0.0497383
0.02524399
0.03020114
0.03029823
0.002201585
-0.02510451
0.02152543
-0.02596281
0.03806441
-0.03529599
-0.008529706
0.03645349
-0.002955084
-0.001842679
0.05171717
-0.05293079
-0.04530537
0.004984652
0.01922809
0.03038137
-0.02926384
0.03191332
0.02196986
0.01180364
-0.04128132
-0.0288043
0.005515209
-0.0388742
-0.04645513
0.001711217
0.01023802
-0.004931431
0.00869149
0.01382528
0.0129553
0.02710626
0.006595325
0.03756893
-0.01411095
0.01872882
0.008391576
-0.03179011
-0.01974185
-0.02306019
-0.04987604
0.04160782
0.001667662
0.04868207
-0.03402406
0.04235679
0.04148242
0.02000262
-0.02486958
0.0427934
-0.03761042
-0.02265198
-0.03750086
0.01343943
-0.04679172
0.05088513
-0.008062125
0.03170075
0.02551132
0.0003600877
0.02559611
-0.04259418
-0.04907354
-0.04244287
-0.006956455
0.02676394
-0.01305372
0.02103004
0.04543337
0.01910266
0.03354508
0.01551389
-0.04888935
-0.05179249
0.03831897
0.04560065
0.02604248
0.002571667
0.01179884
0.04325098
-0.002897592
-0.01205108
-0.05469857
-0.04753639
0.009658633
0.00942325
-0.01727699
-0.04199887
-0.03115301
-0.0425686
0.03123729
0.03975386
0.04466248
-0.0236699
0.01174295
-0.0389454
0.05253335
0.03282644
0.03438891
-0.03854599
0.0456426
-0.006085767
0.01745934
-0.05163843
0.01676935
-0.01272991
0.01538345
-0.01321126
-0.03593291
0.04680394
-0.04676372
-0.02296332
0.02754568
0.03967326
-0.01358171
0.01428493
0.02845853
0.01292375
0.03255037
-0.04410998
-0.05353702
0.001744754
0.003431195
0.006491741
-0.006674521
0.04312755
-0.03297323
0.03357846
0.03106514
0.02374022
-0.02803575
0.0140917
0.03435011
0.01547192
-0.04562693
-0.02381883
0.0001252463
0.0146203
0.03056561
0.04956606
0.04122244
0.0521546
-0.02303477
-0.04021088
-0.01759799
0.01986954
0.003582346
0.05321723
0.03994916
-0.03842009
-0.01300446
-0.01012675
0.04625698
-0.02096014
-0.0379759
-0.04175969
0.04421574
0.03425826
-0.01807927
0.01134427
-0.04982386
0.03293023
-0.01212205
0.01324914
-0.0380874
6.397236e-06
0.0009584949
-0.02812296
-0.03526323
0.01310121
0.03591233
0.01487257
-0.03911466
-0.03836535
0.009788636
0.02863227
0.03565493
0.0376807
0.00789442
-0.004239933
-0.01511556
-0.04133781
-0.0355679
0.04215924
0.05465314
0.01393391
0.03045221
-0.03787144
0.0462097
-0.01414502
-0.04098575
-0.03222145
0.03103977
-0.002145256
0.04000869
-0.03595411
0.05435938
0.0007687716
-0.03115463
0.04333479
0.009374722
-0.02355524
-0.002551675
0.04853679
0.03099174
0.004099106
-0.01633981
0.01956037
-0.03501255
-0.002128781
0.01117282
-0.05205573
0.02446641
-0.03282032
0.01181374
-0.001989736
-0.02981115
-0.008802111
-0.03626801
0.0212176
0.01829028
0.01709443
-0.02103035
-0.02072715
0.03076996
-0.03777539
-0.04628191
-0.006100979
0.01895858
-0.0376471
-0.005209997
0.04907891
-0.04353201
0.03720588
0.05028839
-0.03648596
0.01805022
0.02105791
0.03208667
0.04192431
0.0338527
-0.02778558
-0.02233343
0.01576861
-0.03268005
0.04902622
0.04487424
0.004019179
-0.01693126
0.05322778
-0.03901765
0.0001173337
0.02570478
-0.003422473
-0.02193788
0.04354178
0.008952686
0.007463475
0.03011251
-0.04993785
0.004206825
-0.05076283
0.02611996
-0.04336644
0.007401358
0.01464051
0.009395436
0.04450325
-0.04359975
0.02058605
-0.01110284
0.01749447
-0.009538831
-0.0460702
0.01824502
-0.04613272
-0.01381732
0.01643236
-0.03351042
0.01010861
0.003282972
-0.01125084
-0.01472801
-0.01160551
0.02005048
-0.001464393
0.03660135
-0.01020974
0.05177861
0.00412515
0.04593088
0.03482689
0.008147136
0.0138001
0.03792048
0.006791927
-0.03777464
0.04971169
0.01109435
-0.03123287
0.04073792
-0.01025874
-0.04697926
-0.02987519
-0.03418012
-0.03846106
0.04346438
0.05298909
-0.03021564
0.01379847
0.002239574
0.03859542
-0.01097886
0.04730765
0.05435219
0.005614262
0.005224287
-0.02225973
-0.04704843
-0.05068215
0.05336821
0.03180024
-0.004428813
-0.03532203
-0.007226599
0.05044418
0.03673069
-0.0427101
0.02741411
-0.03323913
-0.003360435
-0.02149144
0.04918266
0.03995009
0.007043302
-0.0310181
-0.04860396
-0.02750184
0.01538969
0.00653669
-0.0364355
-0.02909414
-0.04229099
-0.006921723
0.01000031
0.04074951
-0.05439444
-0.05426487
0.001579757
-0.04190248
-0.00367048
-0.01794582
-0.01005281
0.009773334
-0.03963847
0.04020747
0.05240922
0.04378316
-0.0473978
0.04555322
0.04789473
-0.0232906
0.0191729
-0.03892207
0.04549318
0.01897996
0.01392423
0.00190658
-0.05118354
-0.006053639
-0.02031248
0.01393586
-0.02587454
0.03658669
0.0153359
-0.02470256
-0.02442999
-0.05264001
-0.009641726
-0.03508265
0.00105808
-0.03106856
0.004183357
-0.04292479
-0.02744744
0.02420994
-0.01893027
0.0253572
-0.01696338
0.02033736
0.03201265
-0.01464139
0.03526401
0.04698121
-0.04310971
0.0388227
0.02802228
-0.01253589
0.007686921
0.006754539
0.04345903
0.03637507
0.03198836
0.0533786
-0.002999549
-0.003528151
0.04611942
0.03612283
0.01383807
-0.02492612
0.01966056
-0.02300826
-0.02203515
-0.01243024
-0.02336237
0.004801001
-0.02174306
0.02009779
0.004048998
0.01963979
-0.04316666
0.05148174
0.03608948
-0.01402439
-0.007379778
-0.04986097
-0.05063963
0.04897404
-0.0466887
0.05407941
-0.008085899
-0.01704278
-0.006949526
0.007396342
0.04080336
0.04523044
-0.01185889
0.006144009
-0.01809653
0.006721159
0.04576441
0.02506526
-0.01134999
0.04811146
0.01481143
-0.04626876
-0.01013034
0.03311284
0.03554078
-0.04122003
0.01828088
0.02119305
0.0181763
-0.002568221
0.02153469
-0.03290831
-0.006681839
-0.03525767
-0.03657813
0.03438748
0.003739517
-0.02564382
0.04768171
-0.05221229
-0.04759934
-0.002973739
-0.02398311
0.01296139
0.01981896
0.04890896
-0.02097998
0.008454052
-0.02049171
-0.0452669
0.006434014
-0.03414153
-0.001126593
0.02006813
-0.01520761
0.03696799
-0.04885635
-0.03687939
0.01549233
0.01809652
0.03353146
-0.007517142
0.04436587
-0.01381946
0.02536512
-3.67019e-05
0.0311427
0.01882114
0.02268437
0.03810127
0.02303659
-0.01000298
-0.003612706
-0.008374224
-0.01868718
0.01820454
-0.02225626
0.04171433
-0.047339
-0.01177561
0.01008882
-0.001300889
0.01974986
0.01278461
0.005182145
0.03795321
-0.00929914
-0.05137894
-0.04044721
0.0225861
0.02151904
0.00655755
-0.03859057
0.02433079
0.01409752
-0.01192382
-0.03949462
-0.005728481
0.005934194
0.01064216
0.02552515
0.01656622
0.008342517
0.009116359
0.02411439
0.004510136
0.007857556
-0.01452038
-0.0008261
-0.03345747
-0.05016744
0.03856271
0.04370775
-0.02992898
-0.0447933
-0.05225331
0.03222019
-0.04154879
-0.02570229
-0.02560003
0.02826641
-0.05168528
-0.01082342
-0.009235124
-0.04519659
0.01278462
-0.04549472
-0.01971606
0.03941571
0.02716795
-0.03463909
0.03304929
-0.00636054
0.007560934
-0.01783522
0.02717482
-0.03885214
-0.03984904
-0.05179627
-0.02678014
0.03323377
0.003684446
0.0354883
0.01800369
0.0139282
0.02101922
-0.03762428
-0.03773709
-0.04835076
-0.006020069
0.01779766
-0.003865538
-0.04042044
-0.02362138
-0.05309708
0.0441864
0.002599463
-0.03131547
0.005064813
-0.006575456
-0.04472452
-0.03908007
-0.001775249
0.00326094
-0.0151377
0.01344812
-0.04821013
0.003193998
0.006407731
0.01004889
0.031425
0.03293018
-0.03648546
0.04758087
-0.02181365
-0.02596717
-0.04254071
-0.01918601
-0.04036642
-0.02664858
0.03967885
0.02325042
-0.0147316
0.0331374
0.04137371
-0.0525839
-0.009022654
0.04918415
-0.009173041
0.0223515
0.01389663
0.05436131
-0.04130591
0.01205555
-0.05170367
0.005305576
0.007190576
-0.03651766
0.002172476
0.04953456
0.04767987
-0.05192129
-0.01109744
-0.0177832
0.008224681
0.01782642
-0.04076156
-0.01979967
0.005584116
-0.01413301
0.01754098
0.005605358
0.04343565
0.05258228
0.0006749372
0.05209782
0.02149786
0.02039953
0.04528864
0.0159493
0.03635865
-0.04811017
-0.000731886
0.04587892
0.01805461
-0.0504138
0.0002335603
0.05017084
-0.02363314
0.05136073
0.03307694
-0.01681886
-0.02304327
0.0275984
-0.02495184
0.03023653
0.05253211
0.001655818
0.004306967
0.04855117
-0.04094948
-0.03616107
-0.008143353
-0.03424157
-0.03461668
0.02087499
-0.02569024
0.03769537
0.006994031
-0.03228214
0.04969304
-0.0307286
-0.03016292
-0.0502685
0.02919288
-0.0235007
0.0395233
0.0222233
0.04137131
-0.02504239
0.03520082
-0.01503981
0.04831278
-0.01535091
-0.04537511
0.003726764
-0.01166249
0.03608697
-0.01032507
0.03745861
0.00443602
0.006964964
0.04162743
4.146172e-05
0.05435865
-0.01542311
0.03947211
-0.0265724
-0.04445798
-0.03632466
0.006730932
0.02144633
-0.01080569
-0.02133306
-0.02240756
0.00257029
-0.03799113
-0.01162763
-0.00429451
0.041278
0.004932002
0.006299074
0.03349871
0.02233898
0.02954512
-0.04152045
0.009296814
0.007218333
-0.04549891
0.04454194
-0.05209175
-0.03813502
-0.05088254
-0.03987441
0.03408841
-0.05145954
-0.01877453
-0.03698187
-0.006845302
-0.01508005
0.01336365
-0.03694111
-0.03926256
-0.01703416
-0.05261153
-0.01107731
-0.009748287
0.01645541
0.03057336
-0.0532914
-0.04879039
0.02734193
0.02231078
0.009224595
-0.04663126
0.04289475
0.03436294
0.05138662
-0.007217241
-0.05227372
-0.01116516
-0.04605993
0.0229535
-0.01254152
0.01606699
0.04304984
-0.05102143
-0.03619574
-0.01101412
0.04724848
-0.001819344
-0.04913011
0.0002244323
-0.00526552
0.01429092
-0.02300489
0.0282989
0.0003269256
0.03560118
0.02734288
-0.0395997
0.02485468
0.03317577
-0.01492255
0.03874483
0.02708355
0.02395909
0.03150251
-0.04065716
0.01880249
-0.03466013
-0.0362525
-0.02144034
-0.0002541518
-0.02613851
-0.007907687
0.01633602
0.02599979
0.0001137782
0.01184497
-0.003057739
0.04044694
0.01407646
0.0280605
0.01001898
-0.04902481
-0.04364759
-0.04620178
0.01025094
-0.04599343
-0.01270528
-0.05370984
-0.02826397
0.0125392
-0.007851648
-0.003967647
-0.01837774
-0.04389902
-0.04856509
0.04948265
-0.0005937427
0.005453236
0.03040388
-0.008945983
-0.04721617
-0.01507766
0.05237025
0.0406874
0.008830751
-0.05029623
0.03434386
0.02409137
-0.01214377
-0.01699693
-0.0541626
-0.01663382
0.0288334
-0.04944647
-0.002132586
0.0002337077
0.001588705
-0.05327369
0.005061795
0.04843553
-0.04613687
-0.04732279
-0.04728618
-0.003026891
0.0239397
0.03978967
0.001241637
0.04206134
-0.05374259
-0.02825872
-0.02117662
-0.04348997
-0.02768894
0.0239061
-0.005010565
-0.000437375
-0.02248175
0.01997804
-0.02443736
0.0315429
-0.00898799
0.05171061
0.01605808
0.0371721
-0.04525942
-0.03685065
-0.02178711
-0.03708841
-0.01977389
0.04416235
0.004550913
-0.0117208
0.002858249
0.01857724
-0.02695681
0.01958527
-0.02695074
-0.01354454
0.04691317
-0.04536046
-0.01450457
-0.002761434
-0.03901163
-0.03988069
0.012703
-0.03125751
0.01638174
0.03809918
-0.03667793
-0.01127541
0.04698315
-0.01600072
-0.04610766
0.04269329
0.006582248
-0.01821919
-0.02110271
0.004294734
0.02728738
0.04664109
0.04507531
-0.005746896
0.05083726
-0.03263724
-0.004193991
0.01257511
0.002917643
-0.0435374
0.008368418
0.04541848
0.04285798
0.04135863
0.03995333
-0.005785997
-0.01102245
0.03632147
-0.01277616
0.02642209
0.01456997
0.01732898
0.04707669
-0.04479826
-0.003194534
0.0421968
-0.02816952
0.03574683
-0.02805065
0.03772185
-0.05330701
-0.05318375
-0.02310061
-0.02661115
-0.02920842
0.01099992
-0.005536588
-0.02174523
0.05358606
-0.04734941
-0.04157844
-0.005996679
0.04408233
-0.04383749
-0.0273725
0.04335795
-0.03622066
-0.00831991
-0.02584486
0.01842373
-0.03191164
-0.04215341
-0.002889976
0.007173855
0.0318724
-0.02486236
0.007375014
-0.01422481
0.001705442
0.05370027
0.005190632
-0.0007395412
-0.02795248
-0.01375172
0.05197017
-0.04841536
-0.03123037
-0.01528759
0.005228998
-0.04246552
-0.03528503
0.04152686
0.04079859
-0.0197537
-0.04669269
-0.0071471
-0.03178269
-0.008843871
0.02440985
0.0449209
0.04068664
-0.04310941
-0.03492416
-0.02343231
-0.04438393
-0.0542129
0.03812198
0.02178375
0.04901477
-0.003020773
-0.05091168
0.02486464
0.02117772
0.01908751
0.05076023
-0.01301176
0.0373798
-0.05323946
-0.0393375
-0.006568867
0.05378593
0.03702412
-0.03239931
-0.04849787
0.02226967
-0.0307489
-0.02035849
0.01405501
-0.02870591
-0.03627714
-0.05458754
-0.04434832
-0.02685857
-0.03276559
0.02779861
0.04537838
0.008888943
0.04782281
0.02904924
-0.02432654
0.02823072
-0.048157
0.01714858
0.03416208
-0.02491273
0.0311307
0.03006576
0.02520102
0.01349369
-0.0001829036
0.03568582
0.01581721
-0.03083496
-0.0464612
0.04556505
-0.01334977
-0.00766454
-0.03261955
-0.0006912003
-0.04366842
0.02037472
-0.04201733
-0.0407956
-0.03670902
0.05092638
0.014478
-0.005354115
-0.0001320385
-0.03111156
0.04564075
-0.01030938
-0.04420538
0.006538008
0.04508498
-0.01994621
0.04558796
0.05215206
-0.04302949
-0.05373375
-0.006058239
0.01756964
0.0270076
0.04570972
-0.01122442
0.003595248
0.02164396
0.01550025
0.003373806
-0.01382124
0.02190168
-0.00837242
-0.01833349
0.006967103
-0.05265589
0.005268198
-0.03827698
0.01517127
0.01731925
0.03337286
-0.03883861
-0.02792998
-0.01839755
-0.05180188
0.01901753
-0.03814834
-0.03885277
0.03281753
0.00811516
-0.0125989
0.01611946
-0.03280769
-0.05466576
-0.02273456
-0.04992562
0.02213872
0.04426563
0.005721953
0.01638539
0.05334015
0.01066785
-0.00670459
0.03425706
0.05429633
-0.01578012
-0.0111023
0.0503408
0.04297775
0.03008733
0.03469108
-0.02324435
-0.005122857
0.0375517
0.03825395
0.00614637
0.04387294
0.04444842
0.02359428
0.02445418
-0.0406869
0.04009676
-0.01557037
-0.01069433
-0.03660447
0.03139791
0.01784437
-0.03892378
0.05036391
-0.03168789
0.02078488
-0.04650442
-0.03202682
0.01950403
0.05162161
0.0237031
0.05376999
-0.03576033
0.05369977
-0.03560536
-0.00531537
0.04462337
0.02111485
-0.03716345
0.004425318
-0.04917332
-0.0271468
-0.0102088
-0.02630011
0.01174936
0.007313254
-0.04692846
0.03901192
-0.03029621
0.003111479
0.02212825
-0.01567715
0.02971933
-0.00962124
-0.04197443
-0.01840534
-0.02602893
0.04924102
-0.03281097
-0.03598343
0.002057435
0.0245633
-0.02756647
-0.03319076
0.02459978
-0.002521292
0.0504313
0.002885693
0.05082388
-0.04181342
-0.01520205
0.01610291
-0.04270149
-0.04599865
0.03323887
0.03496263
0.03468583
0.02724184
0.01885224
0.03733323
-0.03246043
0.007836048
0.05167671
0.03677719
0.002918218
-0.03550744
-0.05081239
-0.02997408
0.0001713318
-0.005696699
-0.05032026
0.03175881
0.007289906
0.03736953
0.00594682
-0.01840232
-0.03269502
-0.02079018
0.04385312
-0.04094941
0.05104507
0.04577824
-0.0173263
0.02063691
-0.04682461
-0.05176126
-0.01948457
-0.01467372
0.009024763
0.02236315
-0.001115174
0.0463255
-0.04395503
0.0244361
0.0223001
-0.04015892
-0.02852784
-0.0472116
-0.003665523
0.02680031
-0.04208612
0.03864574
0.03703051
0.02925853
-0.04165705
0.03721367
-0.01042827
-0.02649442
0.02567038
0.01807642
0.01680833
-0.004291525
-0.04378008
-0.02658768
0.004050356
0.04104429
0.006831104
0.04261735
0.05048193
0.0339608
-0.03980613
0.04262731
-0.0432221
0.04479439
0.02499975
0.03584332
-0.034572
0.0182813
0.02494226
0.001230323
-1.964267e-05
-0.007746662
-0.05318425
-0.05075966
0.02744723
0.02680735
-0.04419341
-0.04553958
-0.04905189
0.04013797
-0.04275846
0.02372251
-0.01070514
0.01925459
0.02434053
-0.006629258
0.002649977
0.03549008
-0.04997919
-0.03206958
-0.02738728
0.04998963
0.01133177
0.01385014
0.003212215
-0.003519205
-0.03181314
-0.01522662
0.04701509
0.007035171
-0.02141591
-0.02638774
-0.01703749
-0.05097275
0.03941729
0.05165252
0.03212501
0.02829688
-0.02193497
0.0473976
0.0228985
-0.01879823
0.02461388
-0.01967817
-0.05302288
0.02113115
0.006035394
0.03701989
-0.01722052
0.04096449
0.0004498458
0.02307806
-0.05370984
-0.04739948
0.02425445
0.04282401
0.006948693
0.00149573
0.01790458
0.005983355
-0.01815241
0.04875228
0.03061245
0.03231397
0.05011923
-0.002732699
0.02270836
-0.01898968
-0.009185721
0.03162786
0.04453415
-0.02824986
0.03706189
-0.0253295
0.03838662
0.01279066
0.01007507
0.03221131
-0.006393685
0.0183175
0.0380265
0.006530612
-0.00400787
-0.0467769
-0.01231167
0.03007289
-0.02458386
-0.01050518
0.0200816
0.001964591
-0.02805441
0.01304279
-0.007753453
-0.01211849
0.03804056
0.04552314
-0.0302736
0.02363106
0.007571271
0.03558327
-0.03035758
-0.004440577
0.03071039
-0.02858457
0.04892826
0.04999709
-0.01301383
0.03132753
0.04519225
0.04738487
-0.04313638
0.03624285
0.03088162
0.005593883
0.0509573
0.04956907
-0.009049834
0.03660027
0.01921078
0.03979317
-0.02670687
-0.002158343
0.03271007
-0.002075056
-0.02082689
-0.01750203
-0.02816667
0.02452851
0.0003130175
-0.01427015
-0.01913228
-0.02442611
-0.03545715
0.001154277
0.03330595
-0.01987944
-0.01441715
0.008795186
0.005664067
0.004797583
-0.01941043
-0.03612746
-0.01846444
-0.02834738
-0.02936404
-0.03210458
-0.04664807
0.01957504
0.03775306
-0.001178061
-0.02642966
0.04492662
0.04850739
-0.03488935
-0.04196203
-0.01019821
0.03554252
0.01016557
-0.01392694
0.008882737
0.04244417
-0.007329153
0.03534628
-0.0499891
-0.01249391
0.02265102
0.003584704
0.04074822
0.03746439
0.007966355
-0.05209882
0.03108703
0.04561546
0.01634677
-0.0505249
-0.03162184
0.05372755
-0.05012415
0.03157659
-0.03190997
0.03546219
0.03723481
0.02183892
0.01481086
0.04842701
0.04921666
-0.01327661
-0.03088486
0.04944947
-0.01309224
-0.02514294
-0.03203028
0.04559159
-0.008022964
-0.03587216
-0.0401291
-0.03045645
-0.03029788
0.03974232
0.001529436
0.005512371
-0.03580249
0.04332522
0.04606969
-0.03853957
-0.04324307
0.02428355
0.0479772
0.02087397
0.01527972
0.04225611
-0.03741132
-0.02295864
0.03282255
0.01146254
0.004164202
-0.007698349
-0.01151083
-0.0489947
-0.03052691
0.04614032
0.04335838
-0.04811302
0.03129296
0.0282036
-0.0392507
-0.03926285
0.03782021
-0.0343682
-0.0002650596
0.02834157
0.03280415
-0.04384089
0.008381177
-0.01372947
-0.05390758
-0.03445954
0.05470328
0.02968839
-0.03450679
-0.0469702
0.01822958
0.01233361
0.03241497
0.008918268
0.03769756
0.0208975
-0.01579282
-0.01028763
-0.01427559
0.04228556
-0.05127565
-0.01416032
0.01073705
-0.01670347
-0.01599593
-0.01183544
-0.0059268
-0.0402383
-0.05287265
0.01795712
-0.04715109
-0.005525185
-0.01804803
0.02541188
0.0228501
-0.03681302
-0.05357695
-0.03344879
0.02397465
0.0001571869
-0.03142581
0.006495996
0.007364233
0.00345962
0.03213085
-0.0466257
0.01649707
0.01538217
-0.03884263
-0.03807997
-0.04341382
-0.0007255529
-0.004830987
-0.02838244
0.02887731
0.01131394
-0.03456226
0.03252665
0.007733871
0.0434065
0.01727534
-0.009669661
0.02120923
0.01083353
-0.0276428
0.02646293
-0.00224771
-0.001879748
-0.006851602
-0.02898125
0.03336956
0.04455925
-0.00480117
0.01401138
-0.003082706
-0.01449809
0.04354649
0.04685166
-0.004734005
-0.0324364
0.03465202
-0.04166698
0.04587251
-0.05277859
-0.02613978
-0.04315755
-0.008037844
0.001117294
-0.01019512
-0.001932044
0.04482891
0.01740096
-0.02291256
0.02723701
-0.02768069
-0.009214658
-0.004160814
-0.01072346
-0.03297758
-0.05295767
-0.0004115305
-0.05234437
0.02075061
0.03451024
-0.05378328
-0.03533213
0.004248581
-0.01163284
0.04760858
-0.02464903
-0.01465036
-0.05285809
-0.006925424
0.02369799
-0.04103703
-0.04456708
-0.01359844
-0.02199959
-0.03801246
0.04190245
-0.02253574
0.04666354
0.0001140713
0.03191912
0.004845656
0.02067286
-0.03712797
-0.04637451
0.01111901
0.04654897
-0.02021259
-0.04905956
-0.03543361
0.02376368
0.004658109
-0.003580046
-0.01695449
0.03209489
-0.02725316
-0.009294905
0.001753275
0.02282422
0.045333
0.04541435
0.01879565
-0.04506277
0.04546083
-0.05466225
-0.0234957
0.03716699
-0.002970125
0.01262186
-0.04973381
-0.03091274
0.03452112
-0.004278824
0.04486124
0.02171326
-0.05387393
-0.008830253
-0.01050226
0.05145522
0.01241656
0.04836888
0.03665792
0.03196498
0.02547979
-0.00789139
0.03704445
-0.0138214
0.04372102
0.04724969
-0.04955609
-0.03384971
0.02065717
-0.04489351
0.04369767
0.04095324
-0.04659989
-0.04870869
0.02270623
0.01125922
0.04060386
-0.05365641
0.03832654
0.03334067
0.05446675
-0.01628369
-0.04748078
-0.002345332
-0.037952
-0.04808393
0.0247586
0.04244766
-0.02362452
0.04421292
0.02485734
0.01588208
0.02765999
-0.0001708789
-0.05459087
-0.02115573
0.009065121
0.004686069
-0.0343152
0.009143661
0.0534233
-0.02990591
1.806214e-05
-0.00563322
0.03385575
-0.04616343
-0.02745169
0.01679038
0.03182675
0.03393171
0.01708691
0.001858087
0.02925303
-0.05305254
0.05437297
-0.02008537
0.02557386
-0.02040577
-0.02435924
-0.01368999
-0.03865847
-0.01234295
0.02625184
0.03449039
-0.05065832
0.03480008
0.007041239
-0.03951625
-0.04274792
0.0433973
-0.01679929
0.02210783
0.03489022
-0.01088509
-0.05304553
-0.0497046
-0.00336994
-0.01671551
0.01818831
0.05469542
0.006052015
0.03912691
-0.02004973
0.0001260735
0.01115583
-0.01705966
0.003926982
0.04925002
0.01499682
0.04424998
0.04383536
0.009801874
-0.0457232
-0.04945684
0.006369978
2.385081e-05
-0.01886778
-0.04161989
0.02974202
-0.04670144
0.009555408
0.02115314
0.0385492
-0.03117396
-0.02518876
0.002722594
-0.03393208
-0.02005426
-0.007389323
0.0366195
0.003320068
-0.004696783
0.02446287
-0.02573742
-0.03046562
-0.04181328
-0.02453384
0.01074286
0.04205173
0.002176879
0.01524561
0.02330751
-0.05377187
0.03699708
0.03050075
0.008858096
0.03944798
0.0152217
-0.05395226
0.04086566
0.01906708
-0.05325336
-0.02718748
0.0268246
-0.0300608
0.04398829
-0.04335533
0.006274073
0.03435757
-0.01418816
-0.01675586
-0.04688268
-0.008245071
0.04116417
0.04203438
-0.05086487
-0.003060377
-0.02580242
0.01578913
0.04401578
-0.01468401
0.03925075
0.04968451
-0.001594832
-7.863718e-06
0.007529936
-0.0282746
0.03586669
0.008407152
0.008787618
-0.04883248
-0.02748255
0.0461735
0.05071047
0.04159949
0.03877633
-0.05053564
0.009134208
0.002152795
-0.05386999
-0.05356138
0.001880357
0.02590444
0.006016137
-0.02204362
-0.01569403
0.03290266
0.04647046
-0.04159865
-0.006411369
0.02444074
0.04630623
0.03226081
0.0140664
0.0122263
-0.006414594
0.04076387
0.0009554753
-0.02476445
0.05172605
0.0464862
0.03922211
0.01960479
0.01601034
-0.03708488
0.0464931
0.01720596
0.01455733
-0.01312829
0.04225067
0.002747352
0.05465685
0.0001527056
-0.05341155
0.007077524
-0.04434703
-0.02294784
0.04578051
0.0392395
-0.02010778
0.02827244
0.03005758
-0.04940665
0.04069373
0.01040458
0.02269197
-0.0115575
-0.03463592
-0.0337079
0.02345192
0.036551
0.006678921
-0.02167019
-0.03779362
0.005597976
0.04874429
0.02437627
-0.03209552
-0.01350317
-0.02337088
-0.01543822
-0.0436724
-0.04689729
-0.0318528
0.03333613
0.0008364092
-0.03456685
0.04910109
-0.02917859
0.03968387
0.05273057
-0.02389382
-0.03984106
0.001589738
0.0168025
-0.005146609
-0.04935513
0.01240719
0.01115755
0.05164736
0.0105889
-0.01325546
0.0540569
0.04449415
-0.004341874
-0.04498709
-0.03498853
0.006413791
-0.02832123
-0.05181466
0.02186339
-0.02416918
0.04384685
-0.03441165
0.01438723
-0.03943256
-0.0161407
0.003447857
-0.04850319
-0.01646356
0.01237988
-0.03487454
-0.0314318
-0.05255897
-0.04446054
-0.03412131
-0.01858492
0.03739553
0.03068327
-0.04708264
0.05221822
-0.03070331
-0.009066594
0.05311997
-0.05140244
0.04252051
0.02327212
-0.02153708
-0.01439635
0.005072981
0.04791572
0.04656729
0.04549516
-0.01982484
0.02056173
-0.05382736
-0.03194624
-0.03515664
0.01658159
0.03310027
-0.03080502
0.04473933
0.04887476
0.04645257
0.006726386
-0.03855
-0.03733435
0.01010523
-0.01850739
-0.05279205
0.02742392
0.0116421
0.01517505
-0.0471722
0.05470513
0.01130392
0.03618917
0.01668539
-0.03898046
-0.02889639
0.02649567
-0.04505858
0.0161059
0.05280204
-0.009114458
-0.0486047
-0.006698844
-0.03005048
0.0194606
0.0302921
0.05232659
-0.02356459
-0.02603676
0.007035946
0.02164194
-0.04151252
0.01608578
-0.02944143
-0.0407141
-0.05206522
-0.05251704
0.01691083
0.03734093
-0.01668855
-0.003777364
-0.006504238
0.04297001
0.02050601
0.02371737
0.03342781
0.03499049
-0.02135113
0.01186583
0.05224236
0.05309515
0.0421531
-0.0385203
-0.0005015546
0.05129868
-0.03248493
-0.04604494
0.002517686
-0.02603385
-0.02598922
-0.01682362
-0.005800071
-0.02056959
0.03657259
-0.02938712
0.03823719
-0.05125215
-0.03889057
-0.01667622
-0.05239568
-0.005251809
0.02393556
0.007659128
-0.0147722
-0.01776022
-0.04999474
-0.04804663
0.0151564
0.006209202
0.01962573
0.03389261
0.0130144
0.03282962
0.03458371
-0.03010263
-0.01060411
-0.05321084
0.02908506
-0.01952577
0.008486595
-0.01403583
0.005151904
-0.005237466
0.003044518
-0.03672726
-0.03945839
0.01399693
-0.04227193
0.0005596003
-0.03789603
-0.02679043
-0.04595969
-0.01954514
-0.008571461
-0.05292392
-0.02874784
-0.006648248
-0.02727461
0.01660944
-0.007382951
-0.02413526
0.01049948
0.002967954
0.0395476
-0.004952657
-0.03653154
-0.04397336
-0.008243346
-0.05267135
-0.008911728
-0.01824829
0.04599116
0.002571438
0.03149732
-0.03585902
-0.04870262
-0.05267245
-0.03173426
0.03569141
0.04296425
-0.03151059
0.04470615
0.01758734
0.0331954
-0.013391
-0.009008299
0.03480309
0.04457613
-0.05451872
-0.01557301
-0.02754216
-0.01649996
0.04105363
0.01210769
-0.04454421
-0.02010444
-0.05268891
0.02371247
0.02583559
-0.04344631
-0.05450949
0.02463338
0.005127149
0.02780876
0.01622477
-0.009998363
-0.004627537
-0.01675056
-0.01340961
0.04987036
0.03608966
0.007552644
-0.01914489
-0.04579037
-0.0180455
0.0532644
-0.0003092652
-0.02048894
0.000354858
-0.005946299
-0.0193
0.005568307
-0.005410052
-0.007948657
-3.507746e-05
0.00113814
0.005570435
-0.04161935
-0.004210345
-0.03179039
-0.004363847
-0.01500824
-0.03576976
0.02334437
0.02415581
-0.0351863
-0.01635505
-0.01661677
-0.00598799
-0.04010555
-0.002345144
0.02798592
0.05131775
0.006050505
-0.02455702
0.04897666
0.004550562
-0.02583946
-0.0248468
-0.03359099
-0.02719078
0.02387393
0.009325325
0.03008084
0.03819102
0.00476091
0.02423312
-0.05128615
-0.02993925
0.01957927
0.03596656
0.01855046
0.01981639
-0.03497034
-0.04408191
0.02914598
-0.02841983
-0.008098452
0.01226121
0.02601052
0.02310184
-0.02803817
-0.05364007
0.02206901
-0.03082079
0.0300926
0.009926544
0.04199661
-0.003897776
-0.04079192
0.01570175
-0.0009449886
0.02854094
-0.02653465
0.02521013
-0.02122652
-0.02173619
-0.05353421
-0.02492433
0.004142084
0.01953457
0.02992062
0.02710433
-0.02312736
0.04677601
0.01383887
0.003570875
0.04984085
-0.01891766
-0.05283129
0.0300028
-0.05303328
0.02952166
0.005836454
0.05020474
0.02728233
-0.0341548
-0.00900329
-0.01060715
0.05416757
0.0235195
-0.009357779
-0.04265043
-0.0182202
0.0297668
0.01704219
0.03601487
-0.05308406
-0.02044002
0.009897231
-0.003355457
0.02532965
-0.050277
0.04927958
0.001267038
0.03338565
0.01109606
-0.03199461
0.02393355
-0.02146652
0.01405425
0.04931316
-0.04107118
0.02325905
0.04644237
-0.04984586
0.01063291
0.0025021
-0.00248738
-0.05187411
0.002739668
-0.02652057
-0.04270102
-0.01947646
0.007304626
0.005677027
-0.02691006
0.02074535
0.009565089
-0.008195203
-0.0449372
